2708 128
519 0.063266 -0.254824 -0.033732 0.127480 0.021423 -0.240032 0.195931 -0.057670 -0.099138 0.008723 0.633864 0.163054 -0.295032 -0.001586 -0.265462 -0.255461 0.153522 -0.119394 -0.217920 0.378872 0.114515 -0.190517 0.436929 0.378233 -0.071780 -0.552470 0.426568 -0.709395 0.179757 -0.084112 -0.166044 -0.390737 -0.062164 0.107779 0.012488 -0.208331 -0.014973 -0.117942 0.003239 -0.692003 -0.131471 0.247197 0.685915 0.039092 -0.271528 0.327757 0.103961 -0.391614 0.268579 0.135608 0.021779 0.000765 0.449353 0.064499 0.250638 0.105408 0.176796 -0.622471 -0.252437 0.495081 -0.426152 -0.277511 -0.458305 -0.427806 0.295865 0.215634 -0.449111 -0.316792 0.073120 -0.054875 0.007045 -0.183293 -0.353816 0.167641 0.428601 0.134488 -0.390652 -0.031710 -0.083206 -0.294873 0.058707 -0.179820 0.339410 0.039623 0.078903 -0.055329 -0.188115 -0.295252 -0.085293 0.273326 -0.093497 0.260547 0.367980 0.045134 0.304347 0.110211 0.031167 -0.205504 0.089190 -0.089197 -0.521252 0.250297 -0.329314 0.280945 0.019935 -0.232451 0.335479 0.085936 -0.247243 0.123909 -0.078113 0.254722 -0.052466 -0.168301 -0.051866 -0.167009 0.256675 0.149454 0.478248 -0.455321 -0.284076 0.077107 -0.054832 -0.133000 -0.276638 0.072787 0.006716 -0.222019
388 0.117599 -0.255855 0.136885 0.044508 0.048539 -0.196471 -0.069859 0.013066 -0.201752 0.021213 0.763897 0.020235 -0.068353 -0.313493 -0.433438 -0.333538 -0.064153 -0.172575 -0.162244 0.319555 0.099813 -0.243044 0.337862 0.290306 -0.156095 -0.499288 0.522444 -0.517253 0.128509 -0.087228 -0.173192 -0.202819 -0.108747 0.104197 0.056899 -0.106730 -0.054643 -0.194906 -0.042421 -0.772584 0.021856 0.475062 0.785174 0.189633 -0.191573 0.267390 0.039106 -0.483472 0.370211 0.142785 0.024305 -0.004561 0.629742 0.102126 0.113423 0.071026 0.150360 -0.521532 -0.239303 0.401677 -0.458238 -0.329767 -0.339213 -0.330091 0.288949 0.365216 -0.449423 -0.219732 -0.029798 -0.207786 0.065316 -0.156873 -0.337077 0.080348 0.175237 -0.048666 -0.330246 0.047247 -0.091903 -0.267268 0.126456 -0.018760 0.259891 0.120502 0.022768 -0.072366 -0.213596 -0.082186 -0.273275 0.302331 -0.072537 0.137586 0.569307 0.082384 0.335040 0.435137 0.131891 -0.255166 0.289584 -0.166680 -0.584178 0.123502 -0.532850 0.246085 -0.019218 -0.226549 0.367875 0.256823 -0.233872 -0.056426 0.035814 0.297427 -0.121887 -0.151158 0.113246 -0.172144 0.374728 0.053640 0.228617 -0.524743 -0.331297 0.117214 -0.126156 -0.202376 -0.252486 0.204084 0.077716 -0.047953
280 0.104131 -0.307059 0.103232 -0.081184 -0.072345 -0.208270 0.006823 -0.051192 -0.057052 -0.047678 0.598027 -0.034407 -0.252885 -0.127887 -0.185480 -0.085966 0.108905 -0.121156 -0.101433 0.323916 0.235494 -0.230970 0.298304 0.320490 -0.024470 -0.472891 0.469519 -0.530352 0.073707 -0.014248 -0.044196 -0.426625 -0.050290 0.079930 0.102091 -0.160355 -0.047920 -0.217781 -0.137122 -0.705436 -0.014387 0.419179 0.753897 0.036232 -0.114922 0.154972 -0.042509 -0.548836 0.350856 0.129173 0.069206 -0.000850 0.550089 0.157320 0.257570 0.133403 0.179450 -0.855383 -0.240047 0.332540 -0.339227 -0.452220 -0.301498 -0.443413 0.264819 0.506886 -0.438282 -0.393760 0.030282 -0.122248 0.013009 -0.200664 -0.206638 0.225578 0.304488 0.122487 -0.340765 0.041324 -0.193611 -0.192343 0.188222 -0.205739 0.369296 -0.015509 0.090932 -0.110338 -0.135556 -0.184563 -0.253024 0.370280 -0.109281 0.213375 0.372043 -0.032873 0.241025 0.353060 -0.002895 -0.322377 0.179787 0.079275 -0.532391 0.273650 -0.241087 0.323883 0.014462 -0.227881 0.476051 0.228038 -0.109209 0.131820 0.094749 0.134423 -0.051852 -0.203975 0.028838 -0.221380 0.194594 0.021428 0.402497 -0.475030 -0.257847 0.099819 -0.120964 -0.271365 -0.355931 0.160376 -0.150601 -0.305113
2590 0.058130 -0.451245 0.139111 -0.021430 -0.122410 -0.207860 0.071604 -0.073888 -0.341354 -0.071634 0.681963 -0.077936 -0.175081 -0.086392 -0.305840 -0.095650 0.081537 -0.161703 -0.213187 0.377333 0.054830 -0.107248 0.350981 0.300198 -0.118774 -0.545739 0.521653 -0.664189 0.086577 0.055203 -0.177715 -0.357390 -0.058467 0.124470 0.032550 -0.131642 0.091432 -0.219894 -0.217848 -0.627510 -0.022106 0.466540 0.670161 0.173613 -0.121936 0.148118 0.003837 -0.374873 0.231192 0.075650 -0.010222 0.220082 0.624958 0.080946 0.057246 0.141132 0.238860 -0.420162 -0.141378 0.506703 -0.369590 -0.369986 -0.473811 -0.400500 0.308721 0.360053 -0.420364 -0.453169 -0.054294 -0.123844 0.007246 -0.315307 -0.180485 0.086295 0.269717 0.169787 -0.312459 0.017990 -0.139304 -0.207385 0.085209 -0.061575 0.345291 0.119533 0.158622 -0.150634 -0.026537 -0.085998 -0.219945 0.326299 -0.088007 0.228161 0.496643 0.000193 0.324130 0.463339 -0.030321 -0.304745 -0.060168 -0.020974 -0.517710 0.177146 -0.468222 0.383616 0.051438 -0.270309 0.294540 0.207694 -0.421918 -0.091968 0.027981 0.137600 0.002017 -0.270652 0.106510 -0.065111 0.270313 -0.054567 0.431515 -0.324145 -0.350825 -0.002439 -0.154468 -0.230202 -0.286064 0.067271 -0.179870 -0.245936
2321 0.200850 0.005689 0.257895 -0.126749 0.348763 -0.167066 -0.175095 0.164998 0.031970 -0.177128 0.458940 -0.225793 -0.424356 -0.580949 -0.582893 0.231611 -0.165525 -0.208726 0.237077 -0.039855 0.106749 0.063250 0.593862 0.155459 -0.371838 -0.755606 -0.039338 -0.056282 -0.123831 0.242218 -0.059843 -0.172250 -0.821759 0.149751 0.002280 -0.244942 0.451042 -0.570374 0.060454 -0.281748 -0.111893 0.634659 0.103726 0.095027 -0.508949 0.128077 -0.043392 -0.242616 -0.227785 -0.608648 -0.148190 -0.135383 0.117861 -0.209953 0.275203 -0.293265 0.400461 -0.036215 -0.154005 0.549546 0.111493 -0.193782 0.068853 -0.022003 0.455090 -0.092385 -0.390649 -0.491885 -0.280715 -0.040105 0.475084 0.050898 -0.786416 0.076705 0.225419 -0.075738 -0.091229 0.264141 0.147436 0.071774 -0.350435 -0.194977 0.414634 -0.221428 0.015078 -0.401002 0.044792 0.301669 -0.748326 0.054216 -0.182989 0.017795 0.349897 0.069732 -0.127702 0.139149 0.142309 0.369033 -0.183182 -0.096418 -0.188448 0.348197 0.242483 0.239344 -0.356526 0.266979 0.396597 -0.317962 -0.416709 0.366940 0.041705 0.709803 0.133074 -0.196296 -0.201256 0.192723 0.408227 0.367418 0.123138 -0.396297 0.025465 -0.053943 0.122496 0.592138 -0.193447 -0.172557 -0.276679 -0.213837
648 0.037173 -0.086244 0.386301 -0.289305 0.152228 -0.238986 -0.125435 0.025530 -0.172485 -0.029355 0.526636 -0.347735 -0.260452 -0.620041 -0.586509 0.441683 -0.216538 0.116255 0.263778 0.044555 0.124113 0.223611 0.377484 0.153119 -0.321957 -0.651758 0.095545 -0.165191 -0.041028 0.045078 -0.114951 -0.377237 -0.612806 -0.009909 0.074237 -0.173838 0.413949 -0.209696 0.148383 -0.280479 -0.022935 0.540762 -0.014766 0.258967 -0.315876 0.189031 0.015295 -0.013606 -0.113288 -0.478312 -0.308777 -0.139718 -0.113404 0.159768 0.418501 -0.288514 0.529332 -0.016969 -0.033534 0.626956 0.047925 -0.140876 0.035963 -0.047504 0.596846 -0.237144 -0.506266 -0.602181 -0.389440 -0.003826 0.390359 0.042266 -0.591157 -0.002039 -0.019499 0.033159 -0.049978 0.273264 0.232313 0.051872 -0.347270 -0.061539 0.386012 -0.225848 -0.190018 -0.321579 0.173744 0.305779 -0.722041 0.023450 -0.136650 0.001657 0.182482 0.071856 0.069681 0.209429 0.334176 0.423762 0.007139 -0.129705 -0.276431 0.289755 0.358931 0.106037 -0.388376 0.203970 0.258801 -0.259977 -0.441907 0.158731 0.161008 0.656195 0.165760 -0.010763 -0.126866 0.255569 0.107798 0.290540 -0.103710 -0.552053 -0.060412 0.041623 -0.166266 0.246595 -0.075698 -0.118866 -0.368580 -0.095554
2571 -0.677357 -0.089601 0.216885 0.341915 -0.005641 0.043732 -0.142853 -0.075447 0.216568 -0.411460 0.358437 0.184224 -0.292035 -0.071410 0.122940 -0.239205 -0.024357 -0.228417 -0.184713 0.215801 -0.353520 0.318342 0.585967 -0.617679 -0.434432 -0.260491 0.070372 -0.326871 0.260488 0.303424 0.117052 0.039407 0.333160 0.345682 -0.779034 -0.194337 -0.102887 -0.044988 0.139753 -0.127843 -0.040169 -0.066097 -0.082594 0.054453 -0.020060 0.097075 -0.159312 0.159297 0.154911 -0.096559 -0.357074 0.084741 -0.053617 0.099224 0.215146 -0.056210 0.272032 -0.331818 -0.147190 0.333684 -0.596661 -0.106358 0.040597 0.156233 0.264833 0.154463 -0.099690 -0.075120 -0.114209 0.020747 0.172257 -0.101716 0.045898 0.185173 -0.047022 0.165342 0.247921 0.047522 0.294228 -0.059925 -0.148469 -0.520202 0.248515 0.005848 -0.286254 0.017941 0.082513 0.078519 -0.084131 0.103445 -0.466910 0.203597 0.223222 0.122591 -0.418219 -0.066864 0.133641 -0.030087 0.104259 0.243606 -0.407810 0.567005 -0.316883 0.133328 0.018454 0.449345 0.733908 -0.072048 0.234758 0.342950 0.010734 -0.095387 -0.047306 -0.423683 0.216855 0.131254 0.115274 0.624818 -0.276665 -0.009909 0.150359 0.183752 -0.528049 0.142695 -0.578074 0.054562 0.375639 -0.302815
10 0.050842 -0.396775 0.205571 -0.031110 0.025942 -0.098840 0.004894 -0.219454 -0.090367 -0.157645 0.592776 0.155177 -0.146091 0.041939 -0.206250 -0.260936 0.102068 -0.081579 -0.130212 0.391850 0.127780 -0.205516 0.414847 0.292828 0.005911 -0.454607 0.455776 -0.575979 0.275182 -0.227802 -0.214847 -0.417415 0.017689 0.099864 -0.080562 -0.167965 -0.004239 -0.159710 -0.112126 -0.695557 -0.155639 0.310370 0.739455 0.250171 -0.142035 0.146839 0.087994 -0.474924 0.391839 0.094015 0.146385 -0.041622 0.488259 0.091365 0.289348 0.145875 0.278547 -0.760251 -0.232147 0.244766 -0.390096 -0.265455 -0.389583 -0.319572 0.223684 0.460865 -0.436428 -0.411315 -0.000784 -0.132483 -0.044457 -0.170518 -0.301170 0.156117 0.435899 0.088681 -0.513140 -0.111866 -0.124610 -0.225631 0.107515 -0.096999 0.288776 0.062161 -0.119126 -0.057728 -0.222306 -0.102509 -0.234637 0.262319 -0.004686 0.230240 0.519252 0.077714 0.227072 0.382436 0.014446 -0.324396 0.114672 -0.047098 -0.430939 0.225541 -0.365619 0.392210 -0.081895 -0.112844 0.454293 0.171478 -0.341315 0.017920 -0.088581 0.154965 -0.123874 -0.181214 0.082842 -0.190659 0.219447 0.122468 0.295137 -0.390640 -0.185740 0.168943 -0.185660 -0.245133 -0.114466 0.003402 -0.083607 -0.210325
163 -0.044094 -0.071333 0.463411 0.132776 0.157535 -0.151903 -0.166447 0.456101 0.162205 0.149061 0.089193 0.104420 -0.052617 -0.250140 -0.375020 -0.615313 -0.104253 -0.201487 -0.447224 -0.016225 -0.142309 0.154964 0.404024 0.200063 -0.257183 0.209996 -0.368922 -0.345413 -0.168111 0.141532 0.040778 0.479925 0.200197 0.351371 -0.146705 -0.175726 0.123674 -0.212956 0.130035 -0.096328 0.101990 0.032726 0.103482 -0.394294 -0.147438 0.090742 -0.169408 -0.053527 0.080086 -0.154117 -0.144440 -0.005784 -0.095555 -0.168993 0.502586 -0.128049 0.248220 -0.105693 -0.333204 0.482521 -0.187797 0.075322 -0.390306 -0.000400 0.307511 -0.097495 -0.200902 -0.383311 0.205686 0.089808 -0.187893 -0.127929 0.000510 0.299386 0.176051 0.121952 0.322662 -0.079525 0.128648 -0.257646 0.094418 0.000306 0.111708 0.168427 0.131508 0.026274 0.493934 -0.245301 -0.390129 -0.345452 -0.453294 -0.082972 -0.311620 -0.072939 -0.346710 -0.284228 -0.146393 0.184506 -0.093186 0.716910 -0.448463 0.190238 -0.487109 0.228600 -0.399741 0.346568 -0.147735 -0.183306 0.058456 0.114498 0.008258 0.117670 -0.329223 0.019376 -0.202733 -0.023240 -0.060981 -0.146065 -0.223357 -0.338271 0.029495 -0.118121 0.180020 -0.171531 -0.338766 -0.109054 -0.299049 0.078510
2697 0.061943 0.017196 0.233393 -0.180567 -0.161223 -0.324423 -0.020873 0.292346 0.288430 0.456515 0.122782 0.385884 -0.088966 -0.438700 0.146093 -0.238251 -0.008147 -0.362912 -0.036767 0.074590 0.373577 -0.086722 0.653851 -0.087224 0.247747 -0.402889 0.359092 -0.195856 0.375056 0.337880 -0.219782 -0.348643 -0.357704 -0.078302 -0.021281 -0.140715 0.061530 0.030583 -0.106529 -0.020094 0.332634 0.426629 -0.040517 -0.165554 -0.427753 -0.400023 -0.151072 -0.208801 -0.178218 0.269859 0.343301 -0.012229 -0.050109 0.288222 0.316285 0.752505 0.127322 -0.026435 -0.211457 0.142688 -0.260493 0.060790 0.243642 -0.314592 -0.022192 0.067057 -0.221899 0.015443 0.052414 -0.064922 0.532424 -0.052007 -0.336901 0.108010 0.272594 -0.005482 0.335108 0.253921 -0.189543 -0.018767 0.076264 0.098832 0.189030 0.192981 0.188078 0.201839 -0.093620 -0.206813 -0.353922 0.282498 0.162928 0.490634 0.444017 0.493817 -0.082299 0.112959 0.430918 0.080863 0.136862 0.256436 0.355885 0.752272 -0.260911 0.307145 -0.806317 0.282368 0.420685 0.149414 0.290120 -0.181683 -0.564128 0.617461 -0.305464 -0.280904 0.149538 0.173572 0.091205 -0.226739 -0.038006 -0.227905 0.208237 -0.160716 -0.775163 -0.198075 -0.790444 -0.572106 -0.257880 0.109990
420 0.100012 -0.344967 0.216153 0.110901 0.256400 0.098680 0.086469 -0.175952 -0.068870 -0.134221 0.684382 0.051340 -0.075306 -0.133347 -0.183444 -0.200850 0.094673 -0.216286 -0.187253 0.443382 0.344109 -0.314082 0.243362 0.379632 -0.068804 -0.563605 0.526511 -0.588133 0.158576 -0.070875 -0.250117 -0.444790 -0.045695 0.156038 -0.174229 -0.122273 0.044063 -0.052477 -0.053034 -0.614913 -0.076677 0.448354 0.648415 0.074634 -0.250608 0.145367 -0.128154 -0.312804 0.330356 0.135778 0.232250 -0.057546 0.492944 0.297411 0.024950 0.191191 0.032202 -0.715427 -0.144326 0.317697 -0.246281 -0.292721 -0.317089 -0.408464 0.151171 0.310526 -0.487926 -0.359095 -0.198847 0.020556 0.151095 -0.209433 -0.151090 0.080142 0.324287 0.274623 -0.260851 -0.078740 0.024555 -0.287840 0.020412 -0.091449 0.275729 -0.025637 0.222239 0.067031 -0.071582 -0.172031 -0.188532 0.065375 -0.099460 0.240258 0.521590 0.197684 0.403728 0.177973 0.316297 -0.517404 0.287011 -0.096085 -0.576590 0.230871 -0.454236 0.315598 0.089270 -0.196817 0.394190 0.329121 -0.197017 0.024445 0.133673 0.163836 -0.167556 -0.203830 0.018768 0.007560 0.225132 0.097673 0.256659 -0.474704 -0.288657 0.141004 -0.122427 -0.314655 -0.396165 0.054560 -0.030024 -0.231857
693 -0.000028 -0.028688 0.280696 -0.205433 0.090496 -0.079029 -0.156087 -0.058596 -0.301435 -0.062185 0.548640 -0.484277 -0.405959 -0.346789 -0.547414 0.391364 -0.218446 0.110152 0.490436 0.081677 0.234859 0.244082 0.505541 0.079283 -0.145320 -0.760494 0.128292 -0.303938 -0.052968 0.087229 -0.147753 -0.179773 -0.700220 0.129480 -0.079342 -0.239699 0.479495 -0.408505 0.182884 -0.217668 0.092190 0.482730 0.143292 0.257981 -0.452869 0.157369 -0.112474 -0.019219 -0.152535 -0.532586 -0.143237 -0.093394 -0.009554 0.076809 0.188418 -0.283707 0.587925 -0.016928 -0.040695 0.436277 0.025382 -0.194272 0.046432 -0.237269 0.725397 -0.294660 -0.439370 -0.510952 -0.338692 -0.112176 0.473463 -0.054978 -0.737244 0.082813 0.074802 0.003885 -0.203963 0.301131 0.214398 -0.079113 -0.229730 -0.037675 0.301158 -0.322828 -0.251449 -0.350758 0.054302 0.266161 -0.810624 0.123433 -0.051982 0.131845 0.168031 -0.006016 0.001436 0.237313 0.268672 0.401541 -0.089000 -0.077734 -0.077415 0.447231 0.304548 0.175435 -0.338828 0.244535 0.192653 -0.463149 -0.291901 0.260467 0.035810 0.453071 0.198626 -0.051716 -0.102868 0.368474 0.297227 0.326394 -0.171548 -0.445180 -0.050821 0.032302 -0.157251 0.396462 0.073563 -0.279499 -0.426680 0.000025
439 0.026605 -0.318250 0.027417 0.098888 0.047925 0.002385 0.064172 0.024720 -0.167318 -0.099878 0.628516 0.053896 -0.213867 -0.149168 -0.364642 -0.149947 -0.314950 -0.187966 -0.270255 0.306845 0.233876 -0.236156 0.324791 0.481402 0.002937 -0.756549 0.421916 -0.431620 0.096213 -0.388313 -0.379322 -0.143273 -0.019642 0.040288 -0.062429 0.030890 -0.010174 -0.184312 -0.199949 -0.488770 0.202266 0.649347 0.872554 0.143668 -0.281047 0.092612 0.094952 -0.521647 0.485037 0.030333 -0.081403 0.202126 0.586999 0.059621 0.252956 0.193672 0.321710 -0.310024 0.015052 0.130673 -0.323429 -0.294981 -0.294877 -0.449059 0.147953 0.218644 -0.452044 -0.138202 -0.001220 -0.305782 -0.014208 -0.128799 -0.150821 -0.052503 0.146206 0.177824 -0.206346 -0.094615 0.091167 -0.233873 0.415592 -0.071430 0.428166 0.041066 0.001055 -0.055007 0.038081 -0.124431 -0.707497 0.147761 -0.291623 0.337492 0.482566 0.067108 0.271495 0.370955 -0.082980 -0.258405 0.338827 -0.107208 -0.390116 0.086245 -0.430216 0.369799 0.014230 -0.383935 0.476589 0.256473 -0.059974 0.021910 -0.004186 0.309375 -0.213916 -0.124761 0.316101 -0.053828 0.149596 0.232036 0.003731 -0.500508 -0.090517 -0.064230 -0.189617 -0.122447 -0.402013 0.169748 -0.048658 -0.095844
592 -0.220834 -0.088748 0.300726 0.053234 -0.071639 0.235027 0.417891 0.106582 0.310046 0.119037 0.058898 0.212730 0.079632 -0.089325 -0.001416 0.298831 0.176187 -0.105250 0.463726 0.068252 -0.084428 0.230120 0.305292 -0.161579 -0.077446 -0.220626 0.233072 -0.182983 -0.134680 0.003327 -0.670468 0.174227 0.156747 0.372173 -0.106218 0.228863 -0.187116 -0.480002 0.195785 -0.286288 0.107986 -0.152977 0.236483 -0.010501 -0.184783 0.091928 -0.013508 -0.361253 0.052473 -0.110474 -0.216258 -0.207922 0.099919 0.146003 0.029395 -0.219036 0.422647 -0.230060 0.119457 0.695596 -0.195024 -0.298149 -0.577319 -0.445035 0.489571 -0.072984 -0.140977 -0.257826 -0.476065 -0.219425 0.226590 -0.109554 -0.302093 -0.293689 -0.055489 0.083416 -0.481525 0.548853 0.315645 0.314333 0.018017 0.007129 0.098479 0.065097 0.002711 -0.029482 0.195529 -0.302505 -0.469710 0.220110 -0.213299 -0.138523 -0.218567 -0.353930 -0.014143 -0.356334 0.091244 -0.106799 0.045404 0.518105 0.039850 0.465738 -0.239529 0.330354 -0.474327 0.437284 0.067649 0.225873 0.077258 0.039161 -0.093058 0.172407 0.158591 0.045531 0.068749 -0.284292 -0.100393 -0.073652 -0.044589 -0.170287 -0.408727 -0.028846 -0.334226 -0.585755 -0.036880 0.023932 0.279469 -0.149662
188 0.011474 0.084117 0.444218 -0.365858 0.237900 0.043126 0.080114 0.466263 0.354440 0.473507 0.277631 -0.294894 0.093083 -0.350973 -0.314391 -0.026181 0.072143 -0.215229 -0.127040 -0.222119 -0.294167 0.142919 0.298288 -0.227571 -0.558434 0.020015 -0.293080 -0.166353 -0.325056 -0.184587 0.171450 0.119347 0.033367 0.339503 -0.198115 -0.479558 -0.304633 -0.183751 -0.048757 -0.104229 -0.114756 0.041872 0.230964 -0.168258 0.161136 -0.432805 -0.147131 0.137500 0.289211 -0.107090 0.352133 0.075570 0.087062 0.078224 0.364795 -0.227942 0.512283 -0.240911 -0.433169 0.350309 -0.315082 -0.359612 -0.474066 0.101030 0.641820 0.036575 0.189131 -0.233423 -0.001400 -0.010288 -0.053279 -0.060103 -0.358520 0.367242 0.287278 -0.314014 0.122554 0.050692 0.472686 -0.022689 0.274930 0.112725 -0.179084 0.216858 0.443249 0.329003 0.214889 -0.320442 -0.166330 0.193199 -0.421958 0.035601 -0.135997 -0.160852 -0.233209 -0.454039 -0.192649 0.292316 0.194468 0.355099 -0.165536 0.170681 -0.294605 0.196517 -0.187654 0.255876 -0.207577 -0.234712 0.074694 -0.252646 0.023850 0.178563 -0.169376 -0.042911 -0.105903 0.250291 -0.150677 -0.014525 0.133507 0.042568 -0.053133 0.160112 -0.157789 -0.012277 -0.535236 -0.130318 0.002540 0.152545
796 -0.254615 0.023421 0.515441 -0.069705 0.077309 0.366739 0.121890 0.230661 0.118163 -0.041633 0.548370 -0.281838 -0.083050 -0.055877 -0.394487 0.069233 0.135538 0.566379 0.042791 0.259000 0.223288 0.355961 0.389373 0.199237 0.022862 -0.092356 0.118650 -0.424689 0.367524 -0.543753 -0.385542 -0.088169 -0.421195 -0.192717 0.147398 -0.114857 0.167111 -0.129272 0.127371 -0.134349 0.459887 -0.020281 0.190956 0.050417 -0.162962 0.106242 0.010796 -0.120120 -0.018645 -0.068074 -0.432138 -0.399648 0.152379 0.327868 -0.030273 -0.199380 0.276086 -0.072708 -0.011791 0.351166 -0.175794 -0.248917 -0.241075 -0.227987 0.133743 0.136360 -0.051285 -0.558167 -0.073673 0.252471 0.298589 -0.004600 -0.333993 0.259174 -0.264454 0.187235 -0.028649 0.172517 -0.070626 -0.301574 -0.089525 0.349244 0.291269 0.088354 0.301804 0.144735 0.167612 0.331175 -0.754791 0.097901 -0.078938 -0.015232 -0.037235 -0.239019 0.354326 0.699322 0.466763 0.558499 0.178891 -0.050834 -0.021994 0.142853 0.046555 -0.132080 -0.410262 0.594180 0.721052 -0.316604 -0.314814 -0.043221 0.261047 0.519582 -0.052836 0.015770 -0.280580 0.274483 -0.227600 -0.222697 -0.194071 -0.231535 0.044367 -0.142834 -0.159243 0.272253 0.161917 -0.033236 0.123410 0.220526
1882 -0.715140 0.131075 -0.062136 0.654976 0.133584 0.494405 -0.248291 -0.052340 0.005763 0.126977 0.649297 -0.179244 0.117278 -0.332445 -0.036899 -0.107280 -0.195052 0.114096 -0.210124 -0.258898 -0.321629 0.259936 0.680665 -0.638639 -0.190257 -0.613756 -0.021168 -0.371044 0.176562 0.090904 0.234612 0.126492 0.203058 -0.224604 -0.404729 -0.311028 0.064393 -0.151136 -0.192374 -0.284170 0.382850 0.083155 -0.335700 0.047722 0.078863 0.300644 -0.220895 0.054569 0.153425 -0.096787 -0.071612 0.423963 0.136626 0.420329 0.075579 0.164966 0.070449 -0.176896 -0.354804 0.807289 -0.492944 -0.183064 -0.067003 0.112957 -0.039418 0.188258 -0.311193 -0.114569 -0.069921 -0.008963 0.218448 0.006092 0.068125 0.296393 -0.110166 0.157636 0.416396 0.347441 -0.064390 -0.138134 -0.090113 -0.348956 0.492352 -0.004605 -0.230820 -0.156599 -0.100170 0.233222 0.081275 0.246175 -0.299439 0.232731 0.179626 -0.189428 -0.552917 -0.036000 0.277881 -0.055868 0.024764 0.251730 -0.403202 0.549845 -0.380215 0.473167 -0.065799 0.503531 0.777517 0.177573 0.239971 0.132141 0.058007 -0.383580 -0.119244 -0.234668 0.248868 -0.165682 0.329418 0.559637 0.004052 -0.113255 0.026655 -0.226453 -0.590653 -0.181505 -0.428599 -0.190480 0.289365 -0.111845
1093 -0.210159 0.039169 0.473154 0.176885 -0.001126 0.459666 0.106309 -0.173822 0.040230 0.019181 0.026243 0.476782 0.059934 -0.247325 0.090715 0.400755 0.374500 0.000372 -0.007442 0.045728 0.044929 0.390355 0.523900 -0.105648 -0.475999 -0.262493 0.377460 -0.442610 0.008080 0.053786 -0.625405 0.343585 -0.076225 0.342144 -0.082818 0.042441 -0.010046 -0.238546 0.238116 -0.209400 0.295943 -0.473971 0.067517 0.091128 0.019447 0.255281 0.140284 -0.203230 0.280877 -0.080215 -0.156793 -0.295149 0.134682 0.117177 0.071372 -0.111683 0.069038 -0.205056 0.078063 0.563531 -0.340439 -0.240404 -0.485369 -0.126819 0.690549 0.030734 -0.139017 -0.277161 -0.478686 0.064451 0.263062 -0.065508 -0.137323 -0.171867 0.108398 -0.189128 -0.272350 0.581395 0.299617 0.251205 0.356456 -0.280609 0.158967 -0.183334 -0.126827 -0.222275 0.100496 -0.236549 -0.452422 0.192520 -0.483392 0.041280 -0.033167 -0.161478 -0.173459 -0.290099 -0.025498 -0.109900 0.087674 0.437564 0.007464 0.402340 -0.438260 0.433309 -0.377281 0.412508 -0.204384 0.266785 -0.017558 -0.200643 -0.291376 0.360708 0.444230 -0.046162 -0.011298 0.079778 0.096308 -0.058324 -0.192919 0.018548 -0.430513 0.104104 -0.336126 -0.365958 -0.128917 -0.173937 0.232191 -0.171538
192 0.245925 -0.183460 0.126944 0.043687 0.014202 -0.267646 -0.004548 -0.042904 0.119775 -0.030351 0.581611 -0.139269 -0.336984 -0.103084 -0.401995 -0.283962 0.064468 -0.249741 -0.233154 0.353942 0.202934 -0.402806 0.418389 0.348992 -0.126706 -0.459378 0.471664 -0.758592 0.282589 -0.173533 -0.088541 -0.412457 -0.048577 0.106797 -0.228959 -0.156141 0.058864 -0.002529 -0.136302 -0.696313 -0.011907 0.289786 0.656587 0.073530 -0.131341 0.143771 0.041560 -0.466126 0.361933 0.097633 0.045639 -0.009788 0.683596 0.167940 0.239934 -0.018191 0.283361 -0.490161 -0.152631 0.368738 -0.346629 -0.231539 -0.138536 -0.549217 0.334473 0.338054 -0.624830 -0.209477 0.030431 -0.172644 -0.110492 -0.214572 -0.201281 0.103849 0.382496 0.117963 -0.290882 -0.031916 -0.097142 -0.343903 0.111721 -0.255353 0.391790 -0.091620 0.107450 -0.038556 -0.117636 -0.351019 -0.257554 0.408138 -0.150942 0.258629 0.476537 0.268549 0.375368 0.264049 0.165875 -0.325263 0.184262 -0.011999 -0.562312 0.253875 -0.369479 0.292979 -0.000901 -0.168642 0.205923 0.189869 -0.297397 0.010929 -0.014990 0.102102 -0.131519 -0.232409 0.116950 -0.247619 0.142688 0.002450 0.261241 -0.368935 -0.332599 0.081756 -0.123189 -0.128359 -0.261613 0.041707 -0.111647 -0.263228
42 -0.170834 0.058606 0.462522 0.012362 0.260118 -0.048565 -0.389974 0.343036 0.548020 0.223862 -0.069269 0.149657 -0.090479 -0.381298 -0.309407 -0.481480 -0.149523 -0.219147 -0.152956 0.033161 -0.165357 -0.016010 0.395392 0.339893 -0.119828 -0.088468 -0.133087 -0.102446 -0.289378 -0.028110 -0.269093 0.247541 0.078450 0.489439 -0.199232 -0.235137 0.046425 -0.197983 0.239574 -0.305167 -0.114986 0.101159 -0.055652 -0.143551 -0.177273 -0.079834 -0.181050 -0.030462 -0.089305 -0.172129 0.099934 0.260761 0.061298 -0.315294 0.548269 -0.217636 0.321127 -0.090853 -0.743736 0.527514 0.105944 -0.025253 -0.297827 0.029385 0.383576 -0.162055 -0.096698 -0.236391 0.047681 0.229223 -0.304627 0.031278 -0.135874 0.284506 0.195356 0.149251 0.194549 0.339399 0.176591 -0.033441 0.202125 0.031704 0.021603 0.175291 -0.048898 0.208393 0.381029 -0.536687 -0.187219 -0.274780 -0.407144 0.348550 -0.185481 0.115341 -0.411635 0.000117 -0.046676 -0.036903 -0.018457 0.229706 -0.436747 0.191982 -0.349392 0.174929 -0.427223 0.071373 -0.137393 -0.267998 -0.001137 0.247386 0.252218 0.085346 -0.452635 -0.118386 -0.034613 0.436856 -0.069929 -0.154475 -0.049938 -0.282817 0.185169 -0.026870 -0.351716 -0.017806 -0.173125 -0.297131 -0.260464 0.481301
2526 -0.027981 -0.068933 0.092555 -0.077532 -0.121189 -0.171971 0.510460 -0.088732 0.067629 0.004078 0.101457 0.238672 0.406997 -0.170649 -0.023086 0.065217 0.469307 0.132810 0.085051 -0.232985 -0.014309 0.154486 0.104279 0.113255 0.462150 -0.071484 0.030863 -0.442064 0.382143 0.132339 -0.417012 -0.011150 -0.333291 0.262743 0.179697 -0.255893 0.329321 -0.732426 0.079520 -0.393017 -0.196184 -0.099250 0.256382 -0.037372 0.204030 0.093204 -0.086643 -0.351101 0.173159 -0.442866 -0.088427 -0.119770 0.253412 0.135930 0.314638 0.042003 0.137877 -0.975092 0.164652 0.466644 -0.609172 -0.368689 -0.733828 -0.232013 0.273619 -0.051264 -0.231755 -0.356463 -0.221867 -0.209520 0.200415 0.198965 -0.368489 0.066046 -0.088016 -0.084566 -0.112787 -0.200550 -0.211729 0.175016 0.359714 -0.148630 0.489601 0.031007 -0.214851 -0.008284 -0.142092 0.149644 -0.420708 0.545121 0.054755 0.347181 0.203156 -0.071603 -0.007016 0.007648 -0.028234 -0.455078 0.093834 0.647971 -0.356418 0.389240 -0.091163 0.033468 -0.270409 -0.381145 -0.188597 -0.129723 0.068333 0.006337 -0.330578 0.031004 0.205604 -0.153539 0.125192 -0.164460 0.221479 0.138429 0.421291 -0.313147 -0.173307 0.638136 -0.242799 -0.369860 -0.136005 0.190929 -0.258651 -0.154975
190 -0.018747 -0.422414 0.337543 0.084164 -0.074491 -0.075520 0.255384 0.116923 -0.235609 0.122242 0.645572 0.225895 -0.346307 -0.118873 -0.296495 -0.289258 -0.121345 -0.149230 -0.423707 0.045474 0.193532 -0.185121 0.369499 0.206033 0.017643 -0.386071 0.563915 -0.562173 -0.054140 -0.024422 -0.055078 -0.215586 -0.018109 -0.111195 0.017361 0.187262 -0.120931 -0.127023 -0.080883 -0.627489 -0.056148 0.215893 0.474836 0.217797 -0.171422 0.385506 0.132073 -0.247700 0.506758 0.021434 0.043423 0.183308 0.384645 0.251632 -0.107467 0.137132 0.113742 -0.599289 -0.263452 0.177040 -0.148777 -0.109504 -0.437675 -0.469819 0.486590 0.254243 -0.410898 -0.509860 0.110752 -0.109207 0.206468 -0.328696 -0.228544 -0.008299 0.588142 -0.032230 -0.158516 0.133878 0.078743 -0.204302 -0.091670 -0.362790 0.376379 -0.058436 0.059803 -0.109660 -0.190423 -0.416208 -0.118911 0.293281 -0.052479 0.067480 0.002776 0.278441 0.231111 0.436606 -0.006773 -0.152256 -0.176440 0.029040 -0.558092 0.422908 -0.566781 0.213205 -0.020407 -0.196001 0.272274 0.252466 -0.126988 0.054470 0.055087 -0.066859 -0.212600 -0.323624 -0.159950 0.011059 -0.112581 0.116571 0.592486 -0.074563 -0.359452 0.084117 -0.313235 0.082857 -0.315283 0.069249 0.159472 -0.329971
1629 -0.017901 0.158597 0.565310 -0.248541 -0.024433 0.430207 -0.145831 0.176010 0.159165 0.017761 0.288658 -0.244335 -0.139170 0.066459 -0.419644 0.156728 0.114446 0.326243 0.214793 0.347001 0.252893 0.171263 0.495348 0.074992 0.103592 -0.228267 0.161387 -0.380875 0.340386 -0.382394 -0.429983 -0.180661 -0.428724 -0.132353 0.162365 -0.077090 0.063223 -0.201155 0.138087 -0.283473 0.329613 -0.114250 0.142253 0.251090 0.033704 -0.022705 -0.316741 0.058350 0.018054 -0.105531 -0.490314 -0.235398 0.036693 0.522252 0.014447 -0.313584 0.311314 -0.065403 0.080437 0.298080 -0.156879 -0.323572 -0.125098 -0.227235 0.304931 0.165288 -0.186399 -0.481946 -0.041113 0.088837 0.465636 0.010999 -0.254441 0.140250 -0.303841 0.483181 -0.195617 -0.045411 0.095536 -0.115164 -0.149310 0.197533 0.061700 0.162276 0.255091 0.065037 0.262395 0.176275 -0.840950 0.099086 -0.109132 -0.044731 -0.050311 -0.028937 0.272450 0.664284 0.327299 0.459961 -0.111174 -0.148406 -0.000935 0.287815 0.219797 -0.158091 -0.475050 0.608899 0.661833 -0.137284 -0.454364 -0.132656 0.429473 0.599276 -0.298264 -0.163789 -0.179350 0.289226 -0.123238 -0.222651 -0.287927 -0.283323 -0.079486 -0.290376 -0.062749 0.494827 0.185169 -0.253656 -0.035584 0.089774
995 -0.144373 -0.151530 0.340842 -0.070853 0.183962 -0.073695 0.039132 0.142565 -0.062347 0.209904 0.171779 0.097385 -0.115973 -0.564467 -0.126773 -0.042116 0.187783 -0.090429 -0.066958 0.027142 -0.000864 0.155382 0.466166 -0.143424 0.035563 0.129055 0.121602 -0.335509 0.197809 0.029326 -0.211474 -0.055134 0.303669 0.437428 -0.212414 -0.202280 0.237268 -0.037426 0.254043 -0.579864 -0.182172 0.569352 0.222714 -0.602801 0.087097 -0.176619 -0.183794 -0.125305 0.111760 -0.256537 0.150420 -0.124407 -0.099409 0.081429 0.061005 -0.232248 0.393500 -0.029026 -0.546003 0.313322 0.005312 -0.043766 -0.183491 -0.392418 0.150025 0.296442 -0.101566 0.134713 0.017487 -0.070881 -0.072311 -0.191615 -0.574042 -0.090402 -0.020257 -0.089612 0.069292 -0.301753 0.196374 -0.049750 -0.067996 -0.490609 0.230282 0.054622 -0.045946 -0.021457 0.371066 -0.328075 -0.253408 -0.213032 -0.333982 -0.013893 -0.414768 -0.346420 -0.258071 0.541308 -0.084012 -0.008538 -0.118058 0.662794 -0.008580 0.076354 -0.377252 0.356602 -0.268752 0.683773 -0.389444 0.027980 0.035102 0.166604 0.512711 0.011276 -0.518832 -0.417871 0.143019 0.200530 -0.148024 0.237668 -0.344540 -0.266107 -0.313414 -0.320911 -0.466822 0.191829 0.048856 -0.195542 0.142824 0.317121
427 -0.076965 -0.369366 0.146465 0.194439 0.385273 0.050020 -0.060653 -0.131501 -0.040853 -0.040514 0.001934 0.485087 -0.065588 0.631951 0.189424 0.272031 0.240748 -0.057849 0.083797 0.409355 -0.071222 0.373891 -0.179134 0.157589 -0.231967 -0.096837 -0.038008 -0.111272 -0.171011 0.193979 -0.336888 -0.036771 0.041605 0.357422 -0.655278 0.062799 -0.020174 -0.471439 -0.064819 -0.384849 0.130167 0.032905 -0.027763 0.027606 0.160650 -0.201300 0.490721 0.197511 0.327857 -0.238329 -0.005881 0.228770 0.139557 0.080225 0.098355 -0.218524 0.174478 -0.390447 0.218127 0.576826 -0.478730 -0.369434 0.091384 -0.184346 0.471535 0.290377 -0.259694 -0.358940 0.210795 0.396875 0.398670 -0.115691 -0.365679 0.308110 0.306393 -0.138568 -0.416126 0.043822 -0.391608 0.211272 0.032093 -0.021468 0.267041 -0.158360 -0.251110 0.084806 -0.179801 0.485482 -0.062569 -0.006078 -0.189793 -0.259741 0.027245 -0.223925 -0.140932 0.198779 -0.349171 0.158387 -0.077457 0.132628 0.254606 -0.017018 -0.247210 0.231435 0.034112 0.197217 0.398767 0.275854 0.464992 -0.247656 0.252038 -0.003918 -0.125621 -0.284616 -0.173021 0.281078 0.039506 -0.060414 0.068577 -0.402657 0.318971 0.470509 -0.543508 -0.184087 -0.189389 -0.105583 0.120492 0.029562
2186 0.096265 0.091671 0.367060 -0.095693 0.130165 -0.101599 -0.234292 0.019235 -0.155069 -0.175583 0.501626 -0.387779 -0.402318 -0.630085 -0.486668 0.250441 -0.159089 -0.026863 0.300521 0.102709 0.089154 0.144248 0.646794 0.142827 -0.271101 -0.712213 0.211665 -0.217170 0.038203 0.161228 -0.066770 -0.132236 -0.690950 -0.049363 -0.070900 -0.336502 0.333793 -0.381039 0.182704 -0.274982 -0.039751 0.569692 0.106246 0.125910 -0.410407 0.203240 0.106161 -0.169768 -0.236302 -0.768372 -0.046941 -0.163007 0.043117 -0.076333 0.383443 -0.339450 0.527220 0.041633 -0.039790 0.681463 0.126319 -0.297796 0.016167 -0.025088 0.545834 -0.091903 -0.469878 -0.451692 -0.301693 -0.127309 0.477399 -0.021293 -0.709251 -0.043471 0.115115 0.044459 -0.038419 0.387547 0.311574 0.111601 -0.279015 -0.179832 0.253651 -0.286010 -0.254575 -0.421825 0.010893 0.267064 -0.833692 0.036998 -0.225046 0.133202 0.278762 0.176941 -0.041930 0.097378 0.347259 0.324540 0.029802 -0.208933 -0.099763 0.152887 0.333256 0.279753 -0.559008 0.165169 0.353104 -0.348351 -0.557238 0.239868 0.034960 0.533457 0.188080 -0.058397 -0.077483 0.104160 0.257125 0.330415 -0.016119 -0.517386 -0.047667 0.007189 0.013717 0.394828 -0.140910 -0.342474 -0.269291 -0.204192
793 -0.151620 -0.249753 0.430777 -0.095672 0.417828 -0.019459 0.159683 0.519638 0.447547 0.243621 0.146140 -0.306169 -0.108319 -0.160030 -0.169340 -0.418603 -0.016266 -0.614395 -0.500720 0.127657 0.134437 -0.154049 0.183973 0.256124 -0.143477 0.006154 0.120091 -0.028679 0.218897 -0.171291 -0.330990 0.213213 -0.518396 0.615670 -0.182307 -0.128507 0.271075 -0.164859 0.503954 -0.225992 -0.165264 0.446236 0.008247 0.234170 -0.036130 -0.242935 0.205946 -0.393843 -0.111827 -0.405098 0.087199 0.089550 0.178605 -0.230885 0.496284 -0.241928 0.112857 0.137297 -0.204171 0.435416 -0.073327 0.063408 0.228426 0.131973 0.472687 0.160838 0.004314 -0.699850 -0.134155 0.028120 0.046772 0.247371 0.081097 0.294003 0.037869 0.003436 0.107133 0.042036 0.046334 -0.040870 -0.203524 0.039723 0.150134 0.065713 0.151269 -0.058845 0.346835 -0.356916 -0.040350 -0.444765 -0.185489 -0.183873 -0.394050 -0.001765 -0.671597 0.105870 0.000755 0.362896 0.309844 0.328686 -0.187760 0.355472 -0.465045 0.033232 -0.307988 0.373437 -0.128449 -0.195084 0.035348 0.085178 0.306503 0.121022 -0.040309 -0.248918 0.119021 -0.190609 0.247428 0.349578 -0.300140 -0.344808 -0.109951 0.078534 -0.077133 0.289253 -0.163546 -0.005671 0.055237 -0.053884
1759 0.061628 0.119502 0.177135 -0.170251 -0.178048 -0.319293 -0.063720 0.290894 0.350981 0.382674 0.093959 0.384541 -0.157076 -0.417233 0.179071 -0.104269 -0.102484 -0.403865 -0.381754 0.153986 0.532471 -0.058803 0.725381 -0.282414 0.323693 -0.627631 0.351242 -0.242201 0.200261 0.334410 -0.140113 -0.378399 -0.261371 0.160142 -0.027542 0.010280 0.337281 0.150793 -0.177132 -0.221299 0.191935 0.416285 -0.091691 -0.124639 -0.323265 -0.593907 -0.209624 -0.056476 -0.159379 0.215112 0.427636 -0.060678 -0.055314 0.418654 0.219946 0.608776 0.241188 -0.046219 -0.012195 0.239679 -0.257125 0.119885 0.067121 -0.257306 -0.035803 0.343831 -0.281831 -0.017127 -0.002488 -0.045837 0.433975 -0.095662 -0.240670 -0.005719 0.285782 0.147437 0.252712 0.310703 -0.219765 -0.017861 0.062672 -0.063411 0.222411 0.162370 0.187448 0.333131 -0.214422 -0.288612 -0.397434 0.165200 0.006897 0.483390 0.464229 0.427338 0.062503 -0.009515 0.307561 0.205471 0.014781 0.327657 0.380335 0.705881 -0.331910 0.280196 -0.925461 0.239472 0.424388 -0.096684 0.427358 -0.199443 -0.604439 0.569853 -0.120406 -0.088626 0.203061 0.098602 0.067447 -0.217246 -0.069868 -0.226384 0.363466 -0.115101 -0.469860 -0.110178 -0.531550 -0.571948 -0.397599 0.188081
2464 -0.216840 -0.354552 0.212204 -0.246899 -0.352567 0.310167 0.241547 0.235912 -0.121412 0.143410 0.104560 0.036051 -0.396965 -0.404767 -0.435242 -0.017230 0.065321 0.295055 -0.084374 0.163309 0.105204 -0.447471 0.376609 0.095144 -0.224904 -0.437904 0.597266 -0.240585 -0.187656 -0.306367 0.486169 0.304169 -0.218414 -0.160376 -0.137683 0.396185 0.078466 -0.424072 -0.218457 -0.178208 -0.127504 0.149443 0.073369 0.174796 -0.181820 0.222449 0.309110 -0.377072 0.195274 0.146313 0.226415 0.175794 0.073285 0.298487 0.230672 0.247430 -0.189777 -0.556049 -0.174164 0.148629 -0.400744 0.003548 -0.372368 -0.404312 0.133718 0.083364 -0.233866 -0.710964 0.001129 -0.057816 0.705727 -0.263550 0.120095 -0.148146 0.303134 -0.059254 0.273290 0.027037 0.391571 -0.214644 -0.497645 -0.476860 0.498794 0.126998 0.009115 -0.214189 0.197933 -0.136440 -0.086486 -0.087739 0.129754 0.100818 -0.337300 0.178454 -0.068108 0.373450 0.010714 -0.304393 -0.112568 0.472656 0.005501 0.536299 -0.387941 -0.154740 -0.189960 -0.105566 0.359005 -0.103696 0.319745 -0.027607 -0.541554 0.225556 0.049548 -0.172104 0.094067 0.132607 -0.261943 -0.154537 0.434337 -0.260364 0.069317 -0.224895 -0.505037 -0.073980 0.199046 -0.348913 0.396321 -0.161501
203 -0.286206 0.087053 0.234162 0.098529 0.179790 0.256220 0.232279 0.159649 0.087352 -0.362115 0.082083 0.309205 0.097674 -0.087866 -0.033666 0.056736 0.374325 0.040719 0.261776 -0.005492 0.084366 0.336179 0.645769 -0.163399 -0.320751 -0.503327 0.409144 -0.342209 0.009095 0.234925 -0.401463 -0.007646 -0.046114 0.252005 -0.030660 0.059086 0.042140 -0.466274 0.163225 -0.186088 0.198922 -0.327133 0.335802 0.190252 -0.100354 0.215119 0.251132 -0.304783 0.200951 0.331600 -0.086970 -0.019997 -0.037466 0.249988 0.003340 0.222359 0.232215 -0.080287 0.198667 0.441732 -0.331076 -0.090463 -0.478869 -0.147065 0.799511 -0.335430 -0.130194 -0.212695 -0.184930 -0.070159 0.304950 -0.181953 -0.292795 -0.276987 -0.184989 -0.254921 -0.487821 0.398241 -0.092798 0.214410 0.041434 -0.459037 0.008755 0.116585 -0.308244 -0.250755 0.175087 -0.210120 -0.336865 0.189364 -0.258251 -0.035144 -0.156069 -0.170514 0.130459 -0.195585 0.120445 0.269020 -0.021678 0.601996 -0.065221 0.259025 -0.219100 0.187558 -0.076351 0.287816 -0.151406 0.277360 -0.056205 -0.107036 0.038935 0.476582 0.125326 -0.161314 0.005140 0.175732 0.128541 -0.085570 -0.033586 -0.205814 -0.724724 0.025053 -0.537227 -0.101217 -0.070987 -0.149248 0.301933 -0.286960
2678 -0.208332 -0.210270 0.699693 0.101139 0.125414 0.138356 -0.056716 0.375860 -0.004623 0.398042 0.241954 -0.131688 0.287087 -0.454722 -0.037957 0.252440 -0.036031 -0.452795 0.152649 -0.101803 0.023312 0.269992 0.483426 -0.005737 -0.479797 0.054701 -0.232155 -0.049137 -0.064430 0.131929 0.003855 0.190603 -0.088296 0.216017 -0.059377 -0.281485 -0.305225 -0.179983 0.335006 0.207496 -0.021012 -0.078688 0.387020 0.098256 0.342326 -0.371723 -0.219815 0.410909 0.443594 0.268768 0.170152 0.102626 -0.025541 0.192583 0.029211 -0.105382 0.151230 -0.295156 -0.365568 0.362106 -0.207456 -0.268180 -0.251915 -0.233055 0.947175 -0.006097 0.251087 -0.210570 -0.138483 -0.232267 0.018515 -0.187749 -0.217423 0.040173 0.291137 -0.288587 -0.115394 0.208435 0.380884 -0.316262 0.110393 0.073799 0.119176 -0.000609 0.151832 0.366794 0.208009 -0.319601 -0.157698 0.092457 -0.365415 0.105690 -0.344469 -0.034995 -0.013125 -0.177322 -0.313161 0.147835 0.175235 0.372839 -0.127652 0.187605 -0.369321 0.322754 -0.262099 0.070105 0.191989 -0.113155 0.253842 -0.638107 -0.079309 0.179083 -0.292070 0.223711 -0.256970 0.195851 0.051300 -0.261555 0.243936 -0.185784 -0.415744 0.326847 -0.207873 -0.106584 -0.580728 -0.210982 0.251214 -0.099966
2288 0.002924 -0.040575 0.127516 -0.204092 -0.021285 -0.256603 -0.252812 -0.001734 0.533648 0.432547 0.036649 0.440207 -0.041472 -0.377246 -0.045876 0.147266 -0.249111 -0.388106 -0.189122 -0.007429 0.401271 0.087143 0.853644 -0.327787 0.325147 -0.431944 0.456736 -0.284911 0.346132 0.285120 -0.053439 -0.225212 -0.257918 0.025818 -0.067603 -0.124561 0.044899 -0.135632 0.197403 -0.213029 0.474786 0.205122 -0.220338 -0.084864 -0.349296 -0.168959 -0.158152 -0.155760 0.136450 0.068353 0.465092 -0.100003 -0.386485 0.441309 0.362430 0.278752 0.053518 -0.071926 0.099502 0.263608 -0.068352 0.167505 0.256071 -0.253143 -0.125760 0.277422 -0.199003 -0.120854 -0.217886 -0.089563 0.240195 -0.263793 -0.250573 0.111985 0.334844 0.079429 0.326232 0.172595 -0.121810 0.018344 -0.127268 -0.147597 0.366478 0.176818 0.175575 0.368306 -0.393816 -0.111929 -0.121790 0.105566 0.050238 0.456962 0.570856 0.079442 0.158510 0.123646 0.085158 0.256545 0.088292 0.360387 0.187409 0.621421 -0.266890 0.263650 -0.615358 0.349233 0.326637 0.161052 0.635054 -0.253447 -0.534789 0.690364 -0.067540 -0.025535 0.264301 -0.258953 0.332970 -0.173350 -0.053427 0.057432 0.446396 0.194706 -0.540780 -0.275878 -0.610825 -0.414847 -0.330909 0.204862
747 -0.321237 -0.057239 0.093516 0.123285 0.070673 0.411788 0.438019 0.208715 -0.038063 0.140014 0.114145 0.360306 0.050968 -0.236205 -0.137620 0.153558 -0.132954 0.181414 -0.062703 0.234108 -0.017781 -0.317583 0.259600 -0.005510 -0.379874 -0.136280 0.336828 0.004161 -0.261298 0.136803 -0.216161 0.139748 -0.347679 -0.223381 -0.392445 0.320999 0.063558 -0.309348 0.053089 -0.280177 0.082986 -0.189698 0.553439 0.279402 -0.101099 0.430868 0.004018 -0.247374 0.548712 -0.100532 -0.118039 0.054509 0.223798 0.345940 -0.220776 -0.084843 0.469831 0.038213 -0.014996 0.157396 -0.517782 -0.264853 -0.070809 -0.087702 0.201840 -0.150568 -0.518782 -0.417963 0.222488 -0.252676 0.285137 0.001227 0.212401 -0.006184 0.103037 -0.335209 -0.461016 0.201071 0.005729 0.206652 0.092265 -0.244761 -0.063516 -0.011291 -0.016914 0.283390 0.305203 -0.134092 -0.342637 -0.037907 -0.161063 0.035896 -0.256047 -0.116741 0.322799 0.167396 0.237426 0.437886 0.069927 0.313981 -0.093155 0.270801 -0.833936 0.055266 -0.283028 -0.628174 0.539450 -0.069686 0.083423 0.115487 0.167046 0.290214 0.188385 -0.471548 0.111507 0.020952 -0.093649 0.132047 0.347555 -0.027617 0.002215 -0.180443 -0.739835 0.125373 0.044013 -0.217941 0.229127 0.106189
282 0.157549 -0.227020 0.312331 0.114809 -0.048413 0.170444 0.136460 0.100646 0.558167 0.033527 0.098472 0.029821 -0.102387 0.072742 0.012168 0.417900 0.478224 -0.099413 0.199180 0.021624 -0.097870 0.045945 0.208979 -0.104054 -0.062228 -0.082686 0.266852 -0.367891 -0.167197 0.019857 -0.717798 0.356609 0.322972 0.407482 0.106040 -0.121683 0.113791 -0.293282 0.106149 -0.444205 0.050429 -0.132277 0.390088 0.124493 -0.094437 0.162116 -0.032373 -0.254318 0.273537 -0.230319 -0.155310 -0.098627 -0.116778 0.186197 0.313855 0.112963 0.551681 -0.093324 0.244941 0.449566 -0.366682 0.072444 -0.461893 -0.340610 0.319323 0.101539 0.104893 -0.278096 -0.513308 0.077150 0.207460 0.099410 -0.362640 -0.054274 -0.143177 -0.243841 -0.090274 0.482580 0.413666 0.081044 0.012540 0.051668 0.479125 0.051803 -0.250735 -0.364974 0.417622 -0.399928 -0.280053 0.351736 -0.348327 -0.165503 -0.133922 0.031629 -0.275932 -0.560231 0.061690 0.041547 0.139948 0.581824 -0.076529 0.423344 -0.236154 0.535695 -0.530416 0.429914 0.114281 0.243499 0.017771 -0.333733 -0.490729 0.230337 0.288820 0.190831 -0.066849 0.048178 -0.106100 -0.056250 0.025695 0.118320 -0.373222 0.202894 -0.454454 -0.364563 0.134161 0.010217 0.371491 -0.306949
1817 -0.002701 -0.321678 0.291897 -0.233036 -0.578013 0.295041 0.104435 0.249954 0.041276 -0.104524 0.224280 -0.080282 -0.447272 -0.075221 -0.324570 0.033928 -0.091833 0.330169 -0.049896 0.247691 -0.081217 -0.503764 0.199799 -0.074462 -0.032699 -0.119014 0.587200 -0.225204 0.000816 -0.128048 0.536620 0.302324 -0.104908 -0.033905 -0.068072 0.526269 0.165725 -0.530227 -0.261199 -0.162994 0.030197 0.261503 0.071394 0.182958 -0.239298 0.202009 0.395424 -0.146874 0.168756 0.296662 0.283964 0.077652 0.032547 0.367575 0.359402 0.240308 0.009191 -0.557746 -0.202424 0.178045 -0.517424 -0.092796 -0.426861 -0.301279 0.227794 -0.022999 -0.106751 -0.603315 -0.042149 0.053173 0.415926 -0.233969 0.111274 -0.239016 0.347615 -0.151835 0.273035 -0.001453 0.324223 -0.088350 -0.424556 -0.340532 0.523154 0.263911 -0.002557 -0.137856 0.166721 -0.162758 -0.288151 0.013167 0.272934 0.066472 -0.544512 0.146732 -0.307108 0.217245 0.037510 -0.293159 -0.163282 0.405918 -0.094145 0.580013 -0.348377 -0.150413 -0.084736 0.078795 0.493722 -0.077072 0.275961 -0.091402 -0.533656 0.382123 0.029997 -0.059524 0.029027 0.234288 -0.253009 -0.077522 0.344024 -0.172934 0.053155 -0.050261 -0.406820 -0.151371 0.262291 -0.369350 0.428432 0.185317
2107 -0.474069 -0.098648 0.144772 0.347143 0.140788 -0.216863 -0.144685 -0.070829 0.191759 -0.257054 0.185004 0.264941 -0.046088 -0.058289 0.043562 -0.152747 0.000332 -0.518127 0.259236 0.254959 -0.079268 -0.202554 0.373354 -0.504644 -0.252686 -0.287414 0.217595 -0.499340 0.337721 0.280065 0.144800 0.309812 0.472256 0.344978 -0.903869 -0.075541 0.072567 -0.193910 0.013039 -0.317104 -0.174972 -0.160485 -0.341232 -0.158170 0.132429 -0.009168 -0.149070 0.342716 0.404314 -0.144085 -0.420598 0.136682 0.210213 0.072998 0.278548 -0.020776 0.330651 -0.130876 -0.036515 0.227534 -0.604589 0.142667 0.063727 0.017338 0.411742 0.273581 -0.288470 -0.328545 -0.200202 0.227020 0.262149 0.264202 0.090936 0.127794 0.126365 -0.134293 0.052133 0.219345 0.032971 -0.309669 -0.223890 -0.294063 0.103928 -0.390735 -0.165069 0.146050 -0.004806 0.311216 -0.267688 0.332281 -0.072142 0.121945 0.099321 0.224479 -0.416071 0.034383 -0.344632 -0.033587 0.195220 0.317821 -0.304549 0.492977 -0.561849 0.302040 0.033389 0.668711 0.661909 0.108682 0.162784 0.465793 0.201181 0.201875 -0.052567 -0.301912 0.032360 0.223437 0.108797 0.190758 -0.215053 0.004079 0.235862 0.117055 -0.495447 -0.009028 -0.555393 0.280926 0.179943 -0.597190
589 -0.149938 0.111151 0.219073 -0.082426 -0.337649 0.325036 0.290428 0.216622 0.523595 0.049759 -0.019848 0.175071 0.009051 -0.092530 -0.094140 0.281232 0.317401 0.032007 0.051646 -0.170737 0.161488 0.110775 0.159846 -0.077611 0.108002 -0.562203 0.216835 0.010691 0.365299 0.062910 -0.390767 0.153016 -0.038808 0.605732 0.186104 0.006274 -0.071517 -0.557431 0.112233 -0.600674 0.158976 -0.061191 0.337076 0.166667 -0.101723 0.157801 -0.092582 -0.241239 0.239784 -0.250866 -0.307688 0.348226 0.138250 0.372989 0.393378 0.096988 0.475761 -0.531132 -0.073636 0.690363 -0.036505 -0.241491 -0.457298 -0.403894 0.066397 0.030080 0.310292 -0.318777 -0.359602 -0.306634 0.199383 -0.023706 -0.262694 -0.163649 -0.244799 -0.231921 -0.371859 0.176445 0.105039 0.124206 -0.038522 -0.071578 0.222343 0.054894 0.150506 -0.097231 0.233002 -0.141475 -0.312750 0.734747 0.118044 -0.173504 -0.226436 -0.288105 -0.136907 -0.526517 0.102202 -0.321247 0.039675 0.632260 -0.023915 0.451290 -0.006790 0.264565 -0.477292 0.219658 -0.020959 0.226019 -0.271169 -0.083842 -0.347899 -0.134447 0.267310 -0.203910 0.128576 -0.197789 0.024950 0.074046 -0.024327 -0.224612 -0.032933 0.250082 0.019491 -0.422178 0.010147 0.051095 0.156182 -0.101682
1272 -0.046969 0.068159 0.086533 0.295799 0.202470 -0.294916 -0.084671 -0.039134 0.047343 -0.164265 0.440159 -0.027730 -0.187450 -0.672094 -0.456862 0.128111 -0.394770 -0.031555 0.088408 -0.168454 0.120215 0.236130 0.611877 0.264458 -0.298706 -0.577254 0.339552 -0.176428 -0.225990 0.105640 0.143518 -0.366606 -0.180576 0.118882 -0.160446 -0.468503 0.256867 -0.477434 -0.162520 -0.112670 0.112052 0.511074 0.732873 0.140951 -0.397133 -0.223470 -0.058895 -0.084992 -0.329014 -0.473182 0.035908 0.073837 0.215297 -0.175999 -0.007476 0.159793 0.800843 0.079842 -0.153991 0.136690 -0.016777 -0.246318 -0.063316 -0.077589 0.499961 0.249878 -0.654918 -0.349937 -0.151398 0.039794 0.450497 0.054150 -0.654578 0.193292 0.175977 -0.040350 -0.451594 0.194268 -0.097117 0.233023 0.183149 -0.080163 0.465980 0.316502 0.053868 -0.439525 -0.152346 0.029845 -0.347185 -0.174963 -0.160139 0.172961 0.238995 0.292810 -0.275862 0.226546 0.202050 -0.042598 -0.131379 -0.073867 -0.249310 0.130932 0.002851 -0.101548 -0.088696 0.315478 0.713240 -0.213337 -0.441326 0.062863 -0.203012 0.364714 0.172312 0.503162 -0.268561 0.155255 0.208764 0.228081 0.050146 -0.563877 -0.014101 0.048202 0.316844 0.237874 -0.145243 -0.100647 0.011216 -0.072367
1849 -0.178533 -0.232946 0.461124 0.002784 0.243878 0.511163 0.100372 0.067432 -0.254976 0.540295 0.056742 -0.145551 -0.443121 -0.996769 -0.062438 -0.261690 -0.255026 0.215714 0.072058 0.441446 -0.414989 0.125885 0.518230 -0.202270 0.272790 -0.479218 0.036652 -0.533181 0.129391 0.278369 -0.182742 0.315010 -0.235467 0.126029 0.142524 -0.329097 0.377012 -0.409179 -0.323121 -0.425460 0.484744 -0.000760 1.021780 0.544170 -0.496012 -0.015242 0.216773 0.264901 0.008911 -0.126303 0.243731 -0.026632 0.445896 0.015653 0.000268 -0.205751 0.076331 0.078002 -0.012331 0.560158 -0.347300 -0.344222 -0.128465 -0.260428 0.073138 0.612199 -0.291447 -0.533026 -0.652155 0.113758 -0.064188 0.068069 -0.244902 -0.098502 -0.126562 -0.012655 -0.297745 -0.177949 -0.590496 -0.372865 -0.016477 0.173273 -0.069482 -0.269884 0.191941 0.257528 0.133088 -0.260343 -0.194645 0.368123 0.018147 0.031331 -0.006733 0.031970 -0.634040 0.159551 -0.117071 0.633021 0.479722 -0.045260 -0.149490 0.663638 0.072072 0.103516 -0.231901 0.039190 0.474060 0.083509 -0.168887 0.195039 0.082137 0.292200 -0.261832 -0.415806 -0.023539 -0.136001 -0.231295 -0.303667 -0.441485 -0.177821 0.350556 -0.464185 -0.329139 -0.050986 -0.382350 0.310999 0.355256 0.097926
2700 -0.023088 0.102694 0.216584 0.090452 -0.280108 -0.200369 0.046285 0.518286 0.217806 0.236935 0.081119 0.433005 -0.247796 -0.454935 0.363771 -0.262183 -0.139709 -0.260002 0.096700 0.239856 0.411741 -0.350113 0.512835 -0.040223 0.120380 -0.585173 0.441023 -0.226807 0.213898 0.369391 -0.081505 -0.272512 -0.140805 0.001743 0.086060 -0.262107 0.150983 0.041648 -0.228423 0.090860 0.367234 0.389126 0.094803 -0.171871 -0.232902 -0.586491 0.130491 -0.191837 -0.301210 0.439644 0.328744 -0.177305 0.093317 0.204008 0.327343 0.477450 -0.034418 -0.238812 -0.083255 0.181349 -0.487162 -0.014761 0.082858 -0.154705 -0.173711 0.087492 -0.307996 -0.015680 -0.070088 -0.216340 0.611783 -0.044296 0.053986 -0.024639 0.310547 0.183249 0.452573 0.311711 -0.168713 -0.020275 -0.199212 0.281349 0.185776 0.204728 0.257988 0.170154 0.032322 -0.269092 -0.233817 0.119626 0.003970 0.286784 0.420784 0.548609 -0.195874 0.023642 0.230639 0.110547 0.258342 0.270691 0.459820 0.746013 -0.138511 0.055933 -0.791251 0.314419 0.132228 0.229723 0.193272 -0.131931 -0.408459 0.483205 -0.149302 -0.305223 0.337157 0.238228 0.181814 -0.137434 0.195601 -0.305833 0.320241 -0.225732 -0.580913 -0.094694 -0.791599 -0.265424 -0.088481 0.363692
2574 -0.558727 -0.126679 0.290935 0.295816 0.066603 -0.085650 -0.117532 0.057276 0.037577 -0.316310 0.092910 0.122267 -0.298563 0.265427 0.200937 -0.010106 0.134348 -0.376546 0.082609 0.291670 -0.348456 0.209380 0.370924 -0.192753 -0.088269 -0.411406 0.089547 -0.440201 0.284556 0.341517 0.032292 -0.017100 0.609123 0.534966 -0.895430 -0.031152 -0.041731 -0.311429 -0.017311 -0.301383 -0.030944 0.021785 -0.332235 -0.033154 0.217761 -0.076574 0.023170 0.358375 0.383047 -0.168832 -0.128685 0.098355 0.219432 0.019156 0.265365 0.008848 0.172307 -0.442436 0.046556 0.356473 -0.529423 0.063385 0.093255 0.068814 0.339779 0.403070 -0.276544 -0.245958 -0.306297 0.171238 0.353134 0.251881 -0.255221 0.287240 0.090058 -0.119033 -0.133648 0.182013 0.142359 -0.193070 -0.037017 -0.133744 0.151888 -0.192549 -0.436115 0.071786 -0.071865 0.114713 -0.044050 0.420406 -0.247741 -0.021478 0.034523 -0.018273 -0.544726 0.064026 -0.392751 0.122428 -0.054101 0.286321 -0.094310 0.429363 -0.540421 0.211599 -0.051478 0.446591 0.835901 0.023068 0.164023 0.243280 0.100336 0.103360 -0.189809 -0.141020 0.017385 0.173217 0.332318 0.317638 -0.195604 0.127950 0.108652 0.068899 -0.385120 -0.204491 -0.505098 0.105268 0.106905 -0.488363
2218 -0.004054 0.013185 0.222823 0.033020 -0.372436 -0.057868 0.021809 0.396167 0.083776 -0.041507 -0.063487 -0.310141 -0.087536 -0.086348 -0.080795 0.225664 -0.156232 -0.061435 -0.103520 0.525110 0.464557 0.177948 0.441762 -0.048659 -0.412974 -0.278758 0.678732 -0.083108 -0.020251 -0.341674 -0.399575 0.041911 -0.435354 0.238795 -0.009096 -0.197193 0.319241 -0.234620 0.340399 -0.073693 0.072884 -0.171948 0.186301 -0.287095 0.024118 -0.289355 -0.400232 0.421322 0.155297 0.317690 -0.354383 -0.348633 -0.154763 0.646596 -0.064403 -0.122213 0.190265 0.032977 -0.130044 0.248329 0.109620 -0.124118 -0.230937 0.082147 0.123070 0.036011 -0.010035 -0.232092 -0.202882 0.279666 0.465364 -0.070910 -0.419384 0.080795 -0.140886 0.331201 0.011345 0.163871 -0.018405 -0.273481 -0.483863 0.031424 -0.382708 0.018974 0.179248 -0.212401 0.455539 0.004581 -0.267259 -0.026804 -0.149780 0.341343 -0.069165 -0.118780 -0.015267 0.563843 0.139482 -0.216806 -0.139118 0.117866 -0.478412 0.474323 -0.340602 0.077328 -0.294625 0.315301 0.303753 0.070681 -0.111642 -0.177026 0.762749 0.414540 -0.491927 -0.173427 0.131109 -0.176086 0.080396 0.022756 0.536262 -0.244025 -0.139241 0.238402 -0.215971 0.329655 0.013091 -0.305195 -0.185471 0.182045
2448 -0.012683 -0.146854 -0.020324 0.036713 -0.161251 -0.133576 0.453530 -0.119140 0.018861 0.218495 0.125424 0.179681 0.438774 0.057091 -0.097059 0.222583 0.732251 0.227606 -0.007465 -0.068217 0.002544 0.311781 0.080315 0.103785 0.510112 -0.174824 0.060124 -0.505874 0.543467 0.113990 -0.226583 -0.000770 -0.334564 0.328470 -0.183440 -0.181217 0.201349 -0.672716 -0.013159 -0.441072 -0.302890 0.025091 0.384033 -0.032345 -0.124486 -0.173236 0.020522 -0.549905 0.398922 -0.394050 0.125110 0.026364 0.373012 0.082735 0.305346 0.092459 0.140040 -0.898860 0.135617 0.275806 -0.574147 -0.349325 -0.645485 -0.263671 0.331826 0.121551 -0.139616 -0.312701 -0.078942 -0.337712 0.257043 0.108801 -0.479083 0.019687 0.092399 -0.256808 -0.116536 -0.066681 -0.007276 0.164553 0.364782 -0.074717 0.424441 -0.065544 -0.214134 -0.006795 -0.023424 0.268824 -0.291909 0.581558 -0.058304 0.626556 0.174040 0.006678 -0.071355 0.312645 0.009375 -0.221091 -0.007540 0.412752 -0.519890 0.252650 -0.029168 0.087293 -0.171415 -0.410425 0.070033 0.057864 0.051066 0.061214 -0.346874 -0.115667 0.069903 -0.285271 0.121663 -0.177869 0.183900 0.026865 0.506723 -0.595007 -0.124448 0.543519 -0.226332 -0.367432 -0.107298 -0.065779 -0.240793 -0.303826
1094 -0.222963 0.074604 0.556154 0.152694 0.008517 0.302938 0.355171 -0.035717 0.089316 -0.006989 0.147213 0.428141 -0.016986 -0.368008 0.026991 0.234086 0.475615 -0.232883 -0.021978 0.113596 0.080376 0.438534 0.518707 -0.357769 -0.519663 -0.281720 0.366070 -0.275679 0.055397 0.059943 -0.578974 0.333293 -0.007477 0.436444 -0.063906 0.058721 0.036197 -0.173383 0.194310 -0.147621 0.222602 -0.288644 -0.073303 0.274428 -0.153371 0.269108 0.121947 -0.170648 0.333373 0.117359 -0.106571 -0.312708 0.087024 0.179068 0.122498 -0.051279 0.306346 -0.116432 0.016658 0.500651 -0.279936 -0.252703 -0.541886 0.013138 0.782117 -0.101356 -0.064874 -0.353721 -0.493189 0.143501 0.211840 0.035823 -0.159645 -0.255108 0.151455 -0.086540 -0.532265 0.444988 0.268109 0.325189 0.169419 -0.251523 0.053832 -0.078661 -0.073475 -0.152653 -0.021453 -0.096249 -0.332628 0.265827 -0.551925 0.097020 0.123227 -0.282592 -0.177149 -0.336317 0.023367 -0.116516 0.145358 0.190672 -0.040182 0.455480 -0.291901 0.384653 -0.435313 0.381863 -0.221961 0.239372 -0.062227 -0.192258 -0.266955 0.399364 0.268869 -0.048918 -0.014947 0.187702 0.069922 0.034123 -0.140485 0.049740 -0.483139 0.137205 -0.496444 -0.466536 -0.183526 -0.149547 0.317937 -0.200681
2698 0.065022 0.193655 0.304216 -0.141110 -0.272906 -0.324433 -0.000957 0.353007 0.240656 0.348227 0.166062 0.447945 -0.172479 -0.443058 0.294452 -0.193173 -0.216276 -0.302247 -0.133424 0.076744 0.368205 -0.042943 0.549416 -0.139285 0.193517 -0.588398 0.289561 -0.218546 0.113035 0.339229 -0.125895 -0.346533 -0.423674 0.080447 -0.020688 -0.076523 0.149855 0.128047 -0.112568 -0.028889 0.241437 0.422906 0.071984 -0.155539 -0.259040 -0.623356 -0.030664 -0.222135 -0.280819 0.420712 0.404272 0.117285 -0.046551 0.284451 0.240530 0.573630 0.251283 0.042804 0.032884 0.258532 -0.247871 0.088542 0.194378 -0.249167 0.029600 0.222189 -0.163458 0.015458 -0.062659 -0.062651 0.564082 -0.049918 -0.178094 -0.092947 0.431302 0.147219 0.421976 0.279986 -0.269326 -0.036778 -0.012890 0.117251 0.167649 0.113156 0.140813 0.249252 -0.264158 -0.190174 -0.430846 0.192016 0.179999 0.409700 0.382516 0.404534 -0.082549 0.076980 0.306476 0.154556 0.221862 0.242830 0.417972 0.749119 -0.267390 0.382929 -0.800921 0.135195 0.507747 0.223552 0.173627 -0.133387 -0.609748 0.550693 -0.169566 -0.437013 0.186357 0.192680 0.104434 -0.237242 0.075463 -0.227656 0.216890 -0.258340 -0.662708 -0.217482 -0.772939 -0.582470 -0.326144 0.265230
260 -0.174329 -0.396429 -0.039780 0.231796 0.065922 0.120685 -0.685796 0.212925 0.360479 0.285338 0.508274 -0.059120 -0.072964 -0.143619 -0.082666 -0.017830 0.309233 -0.173178 -0.012100 -0.270332 0.022734 -0.601520 0.662234 -0.089060 0.097549 -0.244349 0.328538 -0.557861 0.112547 0.608514 -0.219714 0.475958 -0.375898 0.366995 0.056361 -0.051511 -0.420758 0.256209 -0.260824 0.199386 0.017572 0.402242 0.501065 -0.078334 -0.091725 -0.136082 0.083540 -0.310379 0.167211 -0.335137 0.123931 -0.062170 0.030707 0.438881 0.232432 0.295967 -0.042906 0.023276 -0.446797 0.384755 -0.262499 0.305086 -0.200571 -0.219823 0.070689 0.270540 0.063583 0.485921 -0.402267 -0.129442 0.055275 0.048079 -0.141685 0.340826 0.171341 -0.255515 -0.245896 0.096702 -0.021790 0.091891 -0.113477 -0.156022 -0.018124 -0.243372 0.368125 0.048390 -0.246594 0.321369 -0.189302 -0.039585 -0.287395 -0.197320 -0.015857 0.049721 0.387254 -0.027625 -0.226281 0.417981 0.013277 0.273922 -0.220905 0.388893 -0.029608 -0.162136 -0.546348 -0.031941 0.751948 0.051188 -0.069432 -0.237977 0.185952 0.312709 0.104164 -0.123801 -0.267821 -0.135911 -0.228965 -0.211812 0.089971 -0.304057 0.677472 0.226297 -0.296671 -0.159434 -0.063891 -0.244152 -0.660288 0.154727
289 -0.090418 -0.252714 0.048293 0.032793 -0.103810 0.096449 0.056779 -0.113370 -0.249382 -0.184277 0.179572 0.349692 0.062494 0.073846 0.135365 -0.053492 0.038502 0.580134 0.280721 0.045499 0.020426 0.171067 -0.099479 0.525575 -0.085675 -0.391990 0.160572 -0.408102 0.044219 0.159578 -0.277446 -0.401992 0.073891 0.022603 -0.781699 0.060370 -0.192767 -0.143255 0.363098 0.341021 0.059228 0.028946 0.174496 0.314003 -0.022315 -0.249673 0.231650 0.201781 0.084028 -0.164766 0.078093 0.000568 -0.005768 0.393609 0.030796 0.048615 0.065863 -0.273495 0.026676 0.339123 -0.368751 -0.292745 -0.153491 -0.104178 0.524648 0.003970 0.128668 -0.278003 -0.096761 0.082136 0.357617 -0.232030 -0.457867 0.462129 -0.260955 -0.472552 -0.335051 0.046815 -0.078771 0.060509 0.101922 -0.235831 -0.027544 -0.248140 0.083953 -0.612184 -0.388955 0.003958 0.062306 0.412191 -0.512139 -0.067467 -0.410905 -0.180697 -0.289403 0.118748 0.106500 0.328892 0.279034 0.255410 -0.034626 0.532016 -0.337148 0.406645 0.432380 0.277560 -0.250547 -0.095934 0.457086 -0.022958 -0.074559 0.254107 0.105748 -0.363084 -0.199556 0.423744 0.069655 -0.043707 -0.333059 -0.389972 -0.209790 -0.027999 -0.458283 0.258219 -0.324359 -0.164743 -0.059548 0.109808
776 -0.006620 -0.378055 0.035395 -0.166264 -0.464970 0.228121 -0.368721 -0.021083 0.483933 0.455584 -0.060696 -0.125720 0.092391 -0.154535 -0.084130 -0.215025 0.041257 -0.225218 0.040404 -0.099447 0.331924 -0.296829 0.615501 -0.202268 0.187704 0.068472 0.336407 -0.359667 0.601742 0.091704 -0.449566 -0.394663 -0.336942 0.167866 0.148875 -0.477566 -0.030047 0.065106 -0.172982 0.002871 0.085670 0.152552 0.412076 -0.114910 -0.208352 -0.407392 -0.099326 0.384440 -0.037061 -0.308064 0.264095 -0.172794 0.012797 0.125145 0.654232 0.319429 0.328563 0.261452 0.279977 0.602336 -0.130840 -0.291200 0.143083 -0.184530 0.240045 -0.104527 -0.024285 0.059162 -0.340736 -0.365099 0.475174 -0.172848 -0.132713 0.216051 0.317662 0.092156 -0.009286 0.123862 0.162511 0.276902 -0.025771 -0.485528 0.009541 -0.114179 0.437242 -0.261670 -0.212054 0.224219 -0.369977 0.190745 -0.276016 0.005929 0.337115 0.161524 -0.225644 0.156982 0.537399 0.376604 -0.204062 0.370049 -0.123758 0.318543 -0.160254 0.109280 -0.732936 -0.097432 0.391589 -0.208165 -0.142490 -0.256098 -0.276901 0.326810 -0.704818 -0.721220 -0.265481 0.165933 0.274642 -0.105914 0.371329 -0.116203 0.744060 -0.273715 -0.023320 -0.376273 0.195635 -0.277280 0.109984 0.019837
41 -0.389790 -0.177343 0.227082 0.143498 0.155739 -0.174811 -0.237604 0.128481 -0.169110 -0.069066 0.120727 -0.172487 0.114595 -0.015510 -0.390615 -0.114900 0.140379 -0.363017 -0.019602 0.267387 -0.017691 -0.232995 0.324157 0.316562 -0.026963 -0.523359 0.339221 -0.104155 -0.349772 0.568503 -0.233026 -0.001068 -0.441363 0.406417 0.068385 0.266448 0.349904 -0.238923 -0.390864 -0.188578 0.135437 0.205809 0.012769 0.166076 -0.158114 0.218919 0.475610 -0.461605 0.385632 0.037974 0.202967 0.190077 0.295782 0.834489 0.258984 0.392685 0.181061 -0.158469 -0.249678 0.234077 -0.570105 -0.267983 -0.289837 -0.259660 0.147717 0.494060 -0.631364 -0.197926 -0.509594 -0.229300 0.454806 -0.355609 -0.504550 0.240654 0.471165 0.102161 0.204416 -0.200720 0.030301 -0.176600 0.291557 -0.227559 0.633228 -0.154759 0.436802 -0.216618 -0.035246 0.140366 -0.338947 -0.063391 -0.002157 0.343960 0.264254 0.182388 -0.004833 0.558505 -0.066838 -0.032255 0.550073 0.119527 0.224637 0.102975 0.213420 0.374902 -0.069830 0.120292 0.440474 -0.465189 -0.671590 0.236886 0.059575 0.323893 0.194500 -0.111860 -0.178732 0.142526 0.012940 0.092320 0.514840 -0.630219 -0.311362 -0.083776 -0.022904 0.125378 -0.219662 -0.520083 0.071107 -0.146345
619 -0.346959 -0.739269 0.063753 0.066157 -0.011602 0.125852 -0.500719 0.113101 0.381364 0.276140 0.446543 0.100612 0.129194 -0.112291 -0.017664 0.214672 0.208916 -0.275068 0.045016 -0.188596 -0.075652 -0.618083 0.549021 -0.133727 0.111614 -0.213640 0.371936 -0.474631 0.055304 0.454067 -0.289609 0.464185 -0.392369 0.268115 0.253321 -0.010919 -0.066253 0.105978 -0.072408 0.294508 0.046865 0.417601 0.548664 -0.063771 -0.128116 -0.220219 0.256055 -0.124404 0.137991 -0.109317 -0.172426 -0.106316 -0.014622 0.501218 0.045220 0.327997 0.079704 -0.163571 -0.657985 0.370521 -0.418136 0.361252 -0.293864 -0.411261 0.007637 0.274040 -0.138265 0.337663 -0.313442 -0.025379 0.042546 0.213746 -0.180679 0.142133 0.215710 -0.230021 -0.291686 0.356120 -0.120926 0.024572 -0.079211 0.149592 -0.075395 -0.215053 0.261325 0.289864 -0.405865 0.415162 -0.098758 -0.176442 -0.237002 -0.166374 -0.180608 -0.186240 0.391235 -0.029863 -0.369236 0.487172 -0.341201 0.337762 -0.266161 0.457077 0.177666 -0.071708 -0.667377 0.026653 0.590766 -0.007981 -0.248564 -0.231798 -0.064384 0.055625 0.215092 -0.122404 -0.406479 0.032945 -0.206542 -0.059076 -0.076036 -0.423638 0.361256 0.378513 -0.244977 -0.152858 -0.120345 0.129732 -0.605863 0.022780
1978 -0.065830 -0.260803 -0.182208 0.438041 0.246264 0.148169 0.032855 0.074897 0.007705 0.028033 0.170756 -0.143297 0.049364 0.006988 -0.476949 -0.162057 0.007200 -0.487375 -0.172903 0.353760 -0.138505 0.209178 0.209042 0.546988 -0.234923 -0.443975 -0.132114 -0.189415 -0.473217 0.318552 -0.391208 -0.011996 -0.349893 0.063654 0.031631 -0.228112 0.315337 -0.118465 -0.292841 0.010216 -0.250458 0.436594 0.129638 0.496838 -0.030605 0.074408 0.059664 -0.049067 0.133771 -0.200148 0.025503 0.036004 0.581209 1.037292 0.270757 0.558029 0.171493 -0.273233 -0.267884 0.631599 -0.255537 -0.239334 -0.222436 -0.363575 0.068723 0.884529 -0.170422 -0.290092 -0.059561 -0.014673 0.415215 -0.368791 -0.296901 0.048925 0.187152 0.477550 0.128882 -0.545639 0.221840 -0.037858 -0.076041 0.039980 0.528657 0.073768 0.268259 -0.178268 -0.129002 0.166136 -0.274032 0.208408 0.378048 0.090401 0.209927 -0.083032 0.084192 0.144951 -0.242180 -0.386241 0.276936 0.104705 -0.114642 0.134260 0.144416 -0.067048 -0.264364 -0.327103 0.004998 -0.373017 -0.293425 -0.152904 -0.208385 0.245852 0.151448 -0.353986 0.475135 -0.023721 0.105016 0.202275 0.385087 -0.057453 -0.024398 -0.365994 -0.226628 0.128842 -0.275862 -0.678788 -0.074094 -0.102108
193 0.100312 -0.404385 0.051781 0.234347 -0.136240 -0.121970 -0.124814 -0.078742 -0.257086 -0.170740 0.559270 -0.245915 0.150164 -0.095264 -0.390597 -0.299666 0.182805 0.056076 -0.192221 0.384632 0.245137 -0.133891 0.520649 0.474343 0.086452 -0.372116 0.596184 -0.557839 0.154997 0.136925 -0.303509 -0.089239 -0.022731 -0.133104 -0.247315 -0.156104 -0.182655 -0.157598 -0.140938 -0.629772 -0.225401 0.403556 0.746907 -0.158452 -0.232574 0.135123 0.143728 -0.389096 0.140447 0.178515 -0.025810 -0.341719 0.456285 0.117076 0.053455 0.279040 0.226227 -0.668326 -0.209473 0.000382 -0.303276 -0.267732 -0.310408 -0.573506 0.327473 0.472228 -0.529927 -0.464456 -0.128474 0.077198 -0.166820 -0.219847 -0.296600 0.069783 0.274779 0.064853 -0.324925 -0.051216 -0.261856 -0.293716 0.018903 -0.055421 0.416978 0.254506 -0.094361 -0.085828 -0.047634 -0.067959 -0.341496 0.289924 -0.156550 0.131831 0.488269 0.061482 0.273372 0.008711 0.004675 -0.588899 0.179448 -0.086617 -0.415347 0.303581 -0.241363 0.316673 -0.319721 -0.150181 0.459361 0.314843 -0.113641 -0.004281 0.018025 0.290917 -0.285207 -0.139994 -0.112770 -0.223919 0.022085 0.167368 0.306728 -0.427432 -0.440481 0.092663 -0.272387 -0.154771 -0.080938 0.068390 -0.093051 -0.238002
1642 0.044511 -0.112440 0.274480 0.178422 -0.281260 0.421793 0.042115 0.255248 0.028346 -0.264589 -0.062887 -0.090676 0.147628 -0.095638 -0.248603 0.451578 0.405107 -0.083511 0.057040 0.396988 0.152078 -0.026780 0.377976 -0.310441 -0.439098 -0.104718 0.478055 -0.291284 0.223320 -0.433622 -0.370699 -0.170688 0.033339 0.440451 -0.030078 -0.314516 0.114328 0.061529 -0.160724 0.006449 0.001619 -0.072820 -0.055856 -0.105834 -0.255685 -0.252927 -0.103014 0.464553 0.199802 0.133172 -0.217359 -0.049345 -0.341193 0.262576 -0.103927 -0.218185 0.219695 0.199080 -0.168449 0.554985 -0.050443 -0.180502 -0.197045 -0.083986 -0.167703 0.255450 -0.255815 -0.132835 -0.293280 0.460274 0.117397 0.242721 -0.479334 0.024626 0.073470 0.224413 0.655322 0.105712 -0.085701 0.030768 -0.278343 -0.099353 -0.279842 -0.013601 0.722517 -0.115367 -0.357684 -0.278892 -0.163468 0.293304 -0.165977 0.014240 -0.224448 0.116204 0.003459 0.432082 0.096796 -0.464351 -0.175790 0.537477 -0.030800 0.556032 -0.024021 0.299072 -0.289036 0.296780 0.443781 0.056593 -0.003715 -0.332069 0.388762 0.334590 -0.062289 -0.232195 0.136161 -0.015130 0.260620 0.030936 -0.191614 -0.282240 -0.275459 -0.186358 -0.257420 0.430782 -0.277542 -0.173724 -0.461803 0.121542
1989 -0.623604 0.082880 -0.149874 0.743497 0.298179 0.500269 -0.315353 -0.005532 0.042824 0.245462 0.739290 -0.127237 0.067127 -0.298521 0.025807 0.053207 0.009360 0.120707 -0.272929 -0.248651 -0.263677 0.216836 0.711947 -0.598570 -0.071708 -0.704700 -0.049156 -0.434975 0.343827 0.271516 0.236617 0.114094 0.085253 -0.017953 -0.517612 -0.312670 0.015729 -0.110459 -0.199644 -0.195826 0.435969 -0.093659 -0.313193 0.090146 -0.118170 0.439445 -0.176228 -0.008321 0.184996 -0.101503 0.007970 0.499188 0.060684 0.353843 -0.100033 -0.089514 0.062925 -0.083113 -0.291046 0.836971 -0.501881 -0.384488 -0.097782 0.209418 0.025483 0.327168 -0.380509 -0.049304 -0.097024 -0.079923 0.135895 0.048371 0.078220 0.400398 -0.236431 0.240829 0.359455 0.305873 -0.070302 -0.023811 -0.045567 -0.465652 0.409898 0.240747 -0.412194 0.007441 -0.074655 0.025289 0.061852 0.347252 -0.327942 0.365876 0.136136 -0.226135 -0.561925 0.032583 0.261649 0.094311 0.138641 0.197442 -0.386477 0.436236 -0.446989 0.300349 -0.175276 0.448412 0.828596 0.093652 0.162054 0.186781 0.225714 -0.427934 -0.004532 -0.370211 0.293503 -0.129575 0.283519 0.546706 -0.068083 -0.136226 0.092961 -0.218642 -0.562012 -0.099001 -0.505780 -0.095969 0.247317 -0.131445
1035 0.073294 -0.291432 0.560833 0.109061 0.206174 0.198252 -0.076966 0.570219 0.245811 -0.014362 0.163979 -0.601204 0.039489 -0.138798 -0.074421 -0.422197 -0.140323 -0.353155 -0.051385 0.251917 -0.074725 0.037338 0.257602 0.258232 -0.058951 0.044442 0.173982 -0.234851 0.103214 0.105583 -0.291044 0.594460 -0.356943 0.365617 0.109765 -0.098398 0.041665 -0.035525 0.538875 -0.296557 0.134265 0.355075 0.375369 0.042226 -0.356959 -0.620470 0.252117 -0.138976 0.121876 -0.295050 -0.031835 0.015021 0.262099 -0.280259 0.806008 -0.304672 0.224397 -0.088538 -0.222528 0.320664 -0.399369 0.051727 0.277164 0.198773 0.134983 0.123630 -0.210975 -0.739616 0.001611 0.139337 -0.282033 0.097987 0.183231 0.578024 0.092262 0.079149 0.461219 -0.124102 0.016835 0.171478 0.033263 0.055181 0.239330 0.406010 -0.067780 -0.153267 0.209836 -0.401093 -0.244744 -0.336645 -0.214120 -0.013609 -0.379035 0.018708 -0.550519 -0.181081 0.017772 0.391360 0.340992 0.265278 -0.290255 0.413761 -0.277843 -0.003815 -0.384643 0.364645 0.030179 -0.252510 0.136507 0.219141 0.256259 0.057115 0.005336 -0.175262 0.063474 0.069419 -0.102905 0.156752 -0.193701 -0.362029 0.010522 0.055972 -0.212433 0.206430 -0.459438 -0.559170 -0.074895 -0.433138
652 -0.167505 0.123839 0.578071 -0.032400 0.049802 0.213078 0.433188 0.101888 -0.057569 -0.006648 0.051332 0.178974 -0.451788 -0.612939 -0.428543 0.076488 -0.117729 0.703089 -0.468584 -0.280910 0.173971 0.170017 0.441912 0.232025 -0.254166 -0.426895 0.006787 -0.266919 -0.067958 -0.061960 -0.459343 -0.103719 -0.584189 -0.263111 0.042544 -0.023274 -0.158462 -0.094639 -0.089886 -0.137191 0.142651 -0.040916 0.701391 0.455412 -0.231400 0.185880 -0.127634 0.097828 0.608498 -0.176046 -0.166922 -0.257409 0.046377 0.049270 -0.025726 -0.306075 0.216505 0.132718 0.068108 0.457757 -0.354460 -0.429749 -0.433409 -0.261594 -0.036568 0.352763 -0.225827 -0.638260 -0.126734 0.253545 0.189764 -0.242470 -0.128744 -0.057071 -0.370192 0.089903 -0.191912 0.139340 -0.189966 -0.166449 0.008291 0.034682 0.187947 -0.517983 0.047241 0.116100 0.167782 0.028944 -0.333398 0.170174 -0.065290 -0.020362 -0.191883 -0.127575 -0.006051 0.440448 0.058032 0.764798 -0.013598 0.255777 0.005038 0.155598 -0.016611 -0.017350 -0.468139 0.317162 0.717982 -0.214626 0.062155 -0.152991 -0.002525 0.286553 0.074769 -0.135216 -0.110738 -0.245201 -0.124326 0.196694 -0.306960 -0.066152 0.085951 0.037056 -0.227941 0.447039 -0.159755 0.099271 0.288308 0.201926
2163 -0.178865 -0.198168 0.171452 -0.034923 0.036220 0.523476 -0.035037 -0.112629 -0.400504 0.342819 0.077420 0.159059 -0.320785 -1.094062 0.258390 -0.160428 -0.248952 0.152098 0.077014 0.305400 -0.393433 0.213754 0.657120 -0.244791 0.178977 -0.381359 0.210769 -0.463740 0.188224 0.285291 -0.276085 0.386576 -0.256846 0.158419 0.108457 -0.339718 0.159594 -0.480954 -0.153540 -0.190011 0.402767 -0.068190 0.895788 0.614478 -0.468332 -0.027158 0.294351 0.105950 -0.087618 -0.032935 0.184698 -0.071002 0.488818 0.159922 0.042228 -0.199496 -0.004014 0.060438 -0.013855 0.602369 -0.502013 -0.083730 -0.129585 -0.081288 0.339705 0.518436 -0.372135 -0.566916 -0.629248 0.231240 -0.134934 0.069260 -0.142982 -0.241406 -0.251157 0.023052 -0.259102 -0.146184 -0.554088 -0.423305 0.131272 0.083935 -0.139259 -0.142693 0.221141 0.448301 0.096947 -0.185725 -0.168911 0.485351 0.037048 -0.140727 -0.013278 0.053717 -0.680423 0.393471 -0.121938 0.572310 0.494845 -0.171661 -0.066100 0.723163 -0.208145 0.111154 -0.293032 -0.105254 0.669045 -0.110512 -0.096545 0.070328 0.267146 0.296039 -0.317157 -0.514259 0.099851 0.101736 -0.248039 -0.241337 -0.445994 -0.105756 0.287618 -0.677592 -0.295422 0.087341 -0.401616 0.308457 0.283447 0.225998
2512 -0.070539 -0.292007 0.381391 0.164952 0.175945 -0.019117 0.135234 0.162524 0.366685 -0.067117 0.031462 -0.394930 0.177789 -0.321096 -0.023116 -0.184372 0.506016 -0.494969 -0.514502 -0.181352 0.221479 -0.187043 -0.003293 0.121105 -0.370945 0.603601 0.433058 -0.231661 0.101076 0.318426 -0.463585 0.294164 -0.778616 0.389076 0.127897 -0.183863 0.002409 0.027963 0.313265 -0.385508 -0.128238 0.572644 0.076063 0.378204 0.009055 -0.469049 0.049544 -0.152503 0.072280 -0.311154 0.116774 0.551015 0.228100 0.264723 0.689514 0.012421 0.246176 0.033255 0.147235 0.738293 -0.230646 0.363328 -0.076287 -0.333680 -0.045350 0.340474 -0.226758 -0.231441 -0.287406 0.029571 0.243949 0.334824 -0.243837 -0.237918 0.287914 0.144859 -0.047543 0.462556 0.269428 -0.366445 -0.088715 -0.121030 0.497247 -0.035580 0.078274 0.294971 0.671688 -0.326858 -0.081718 -0.511949 -0.361313 0.051789 -0.043124 -0.282644 -0.359940 0.532300 0.103024 0.048109 0.002176 0.439123 -0.092481 0.177525 0.008627 0.314604 0.444696 0.109229 0.064326 -0.309010 -0.043914 0.079639 0.415039 0.060268 -0.062128 -0.104529 0.137269 -0.108256 0.166117 -0.005113 -0.260592 -0.531436 0.036947 -0.144008 -0.127263 0.028812 -0.667031 -0.131408 0.040483 -0.507934
777 -0.409730 -0.030059 0.302659 0.010602 0.282397 -0.122186 -0.005724 -0.085678 -0.081057 0.052730 0.091161 -0.285980 0.072960 -0.118034 -0.332029 -0.044847 -0.073267 -0.243304 -0.145522 0.272475 0.171652 -0.200432 0.339886 0.396856 0.106560 -0.620002 0.445000 -0.081479 -0.439250 0.459480 -0.106380 0.220475 -0.414568 0.393609 -0.026823 0.228780 0.156365 -0.276960 -0.320988 -0.003627 0.239905 0.351862 -0.045628 0.168921 0.016735 0.298460 0.124874 -0.631629 0.521310 -0.038970 0.335828 0.245915 0.184346 0.791525 0.305788 0.507465 0.115876 -0.302757 -0.234802 0.201414 -0.659437 0.061092 -0.466202 -0.292329 -0.181735 0.450220 -0.440829 -0.403132 -0.505740 -0.186483 0.342458 -0.407787 -0.336970 0.136327 0.310559 0.176435 0.190377 -0.286447 -0.105352 -0.225134 0.078745 -0.373637 0.670501 -0.125975 0.214851 -0.231360 -0.040857 0.109369 -0.418862 -0.132197 -0.200925 0.282022 0.272988 0.172727 0.071110 0.277219 0.253503 -0.021978 0.321700 0.007122 0.473221 0.341113 0.101054 0.434812 -0.323320 0.207707 0.433125 -0.195729 -0.691093 0.072334 0.101016 0.195354 0.128796 -0.056824 0.045334 0.249434 0.307088 0.105509 0.520742 -0.640506 -0.433135 -0.075705 -0.313133 -0.118826 -0.229111 -0.501985 0.149610 -0.024531
2421 0.471958 -0.626436 -0.253683 -0.002103 -0.064703 -0.047519 0.039334 0.072867 -0.435422 -0.235650 0.387684 -0.207759 0.002183 -0.040276 -0.049043 -0.063753 0.254106 -0.091957 0.053451 0.341333 -0.001061 0.154270 0.410858 0.270193 -0.366440 -0.270333 -0.044870 -0.446494 -0.121478 0.546520 -0.223072 -0.079440 -0.106249 -0.018023 0.268578 0.243667 0.371801 -0.017584 -0.081440 -0.421771 -0.044544 0.088756 0.649624 0.526504 -0.192947 0.301690 -0.090748 -0.262878 -0.014240 -0.035919 0.018449 -0.017177 0.586729 0.558069 0.067045 0.037786 0.226011 -0.111993 -0.429842 0.572601 -0.388112 -0.284287 -0.199251 -0.408677 0.366606 0.506451 -0.059008 -0.126134 -0.413446 -0.008215 0.087110 -0.729976 -0.361909 0.123688 0.017647 0.574325 -0.121526 -0.083245 0.115347 -0.465538 -0.258233 -0.010944 0.290470 0.296049 -0.048022 -0.087732 -0.082443 0.251836 -0.360299 0.311314 0.255824 0.218792 0.338784 -0.247877 -0.036395 0.584529 0.062619 -0.441267 -0.001435 -0.068751 -0.535958 0.265348 -0.058040 0.145841 -0.452128 -0.203326 0.446022 -0.274718 -0.183722 0.085614 -0.024265 0.220684 0.236917 -0.124859 -0.073838 -0.227599 0.029873 -0.125726 0.676894 -0.590264 -0.178731 0.138312 -0.086144 -0.010749 -0.177914 -0.201128 -0.017437 -0.088376
2142 -0.491877 -0.163999 0.442843 0.322882 0.203648 0.540772 0.005301 0.211123 0.078588 0.602678 -0.295779 -0.121597 -0.335609 -0.380687 -0.253005 -0.158003 -0.305011 0.452210 -0.280462 0.125085 -0.428232 0.228646 0.596294 -0.226817 -0.002647 -0.262233 0.192020 -0.639512 0.033368 0.615714 -0.141646 0.508334 -0.416754 0.523296 -0.181658 -0.413605 0.558546 -0.231938 -0.336787 -0.290995 0.133213 -0.255248 1.064593 0.170304 -0.179056 0.383892 -0.002528 0.443378 -0.160833 -0.154364 0.473338 0.238087 0.190947 0.070999 0.126158 -0.109197 0.107737 0.128291 -0.257190 0.603876 -0.188526 -0.344798 -0.090801 -0.543354 -0.131628 0.108932 -0.295886 -0.448680 -0.500433 0.006015 -0.141711 0.077197 -0.339755 0.008904 -0.163186 0.181163 -0.183227 0.098822 -0.437535 -0.150529 0.031281 0.113368 0.085984 -0.345019 0.428049 0.258038 -0.258237 -0.420705 -0.127060 0.072499 -0.135736 0.035763 0.263821 0.258205 -0.400128 -0.147620 -0.247087 0.664497 0.490648 0.022167 -0.450922 0.821785 0.210150 -0.175363 -0.427716 0.201853 0.343904 -0.004694 0.332669 0.249560 0.633272 0.252192 -0.469148 -0.484556 -0.216524 -0.161046 -0.185569 -0.240480 -0.365485 -0.098114 0.348748 -0.109105 -0.307325 0.098569 -0.390736 0.065424 -0.084727 -0.046805
1354 -0.474674 -0.220208 -0.078877 0.566834 0.570269 0.486733 -0.103490 -0.207372 0.220680 -0.133537 0.182509 -0.245429 0.277048 -0.132677 -0.155233 -0.286395 -0.159597 0.213771 0.026792 0.734422 -0.005930 -0.417275 -0.095001 0.193858 -0.475751 -0.311421 -0.036573 -0.202346 0.008546 0.057932 0.290666 -0.321464 -0.267131 0.172980 -0.074173 -0.055160 0.124800 -0.023927 -0.383649 0.428598 0.004923 0.265569 0.340520 -0.336878 0.218391 0.019997 -0.165137 -0.174081 0.273169 -0.114267 -0.091989 -0.166867 0.066184 0.179748 0.261499 -0.317971 0.521120 -0.483015 -0.119216 0.035828 -0.106874 0.094750 0.075802 -0.201807 0.762968 0.169304 0.116602 -0.666162 -0.096028 -0.413226 0.085262 -0.036977 -0.194928 0.371781 -0.060885 -0.528523 -0.155181 0.038275 0.103852 0.475883 0.234144 -0.619899 -0.145822 -0.234771 0.044524 -0.258183 -0.181598 0.161407 -0.245490 0.287433 -0.117708 0.498167 0.103868 -0.513164 -0.283761 0.044465 0.184683 -0.162402 -0.444274 0.248314 0.049347 0.194689 -0.276034 0.522606 -0.327285 0.493043 -0.267600 0.262507 0.351741 -0.036212 0.278023 0.303975 -0.033138 -0.371154 -0.158498 0.007948 -0.030906 -0.200981 -0.035626 -0.257499 0.045108 -0.006731 -0.017099 0.094800 -0.510107 0.160524 -0.281013 -0.067023
110 0.227168 -0.214193 0.146178 0.200096 0.306300 0.460192 0.655863 0.242312 0.111708 0.145092 -0.141779 -0.150356 -0.147235 -0.106515 -0.219852 0.016502 0.292713 0.479096 -0.100360 0.292219 0.284402 -0.040058 0.366434 0.036903 -0.641885 -0.193530 0.248795 0.146967 -0.267902 0.029417 -0.015889 -0.158952 -0.141596 0.397981 -0.323150 0.352922 -0.372414 -0.453730 -0.080275 -0.215531 0.034882 -0.062332 0.282042 0.360804 -0.215793 0.192893 0.001565 -0.332683 0.023039 -0.457192 -0.329518 -0.284662 -0.059103 0.583865 -0.235113 0.263879 0.378049 -0.393503 0.118485 0.137728 -0.598884 -0.119955 -0.195324 -0.196586 0.271242 -0.181633 -0.418942 -0.287700 -0.101694 0.081332 -0.252068 -0.089577 -0.040727 0.096362 0.198901 -0.254293 -0.020702 0.181648 0.051187 -0.133150 0.263814 -0.378242 0.035802 0.122610 0.051062 0.138604 0.162106 -0.104231 -0.435400 -0.033898 -0.140319 0.213706 -0.042680 0.187683 0.278784 0.561419 -0.002900 0.395717 0.342118 0.293144 0.150134 0.298934 -0.828390 0.201117 -0.198350 -0.279061 0.389592 0.487378 0.222702 -0.064757 -0.076229 0.095726 0.032809 -0.071486 0.132986 -0.247130 -0.191657 0.374268 -0.142838 -0.042210 0.190945 -0.193036 -0.349778 -0.163574 -0.073409 -0.194364 0.058323 0.045541
1281 0.024040 0.055051 0.267287 0.140601 0.280621 -0.105016 -0.109338 0.023215 -0.201817 0.031971 0.656463 -0.096174 -0.418805 -0.644336 -0.662181 0.318031 -0.217899 0.039752 0.354827 0.089052 0.236307 0.033758 0.679780 0.280409 -0.274727 -0.612271 0.042829 -0.063865 -0.054130 0.319112 0.018408 -0.245903 -0.429868 0.124103 -0.088046 -0.473039 0.185315 -0.437479 -0.004382 -0.182073 0.073121 0.426099 0.486383 0.050660 -0.383162 -0.050564 -0.042891 0.027813 -0.294046 -0.298622 -0.255469 0.095296 0.002910 -0.015437 0.060968 -0.268212 0.587009 0.121871 -0.038943 0.362237 0.083246 -0.220510 -0.030980 -0.001151 0.548668 0.091870 -0.599179 -0.344144 -0.207499 0.129088 0.631261 0.041528 -0.994163 0.258415 0.241169 -0.085624 -0.293931 0.142960 0.107759 0.192173 0.029328 -0.057084 0.403626 -0.041150 -0.140036 -0.536847 0.108653 0.233864 -0.770727 -0.159521 -0.435327 0.214503 0.149594 0.186128 -0.201119 0.064897 0.059574 0.090077 -0.105978 -0.063479 -0.317898 0.315729 0.070180 -0.016811 -0.144924 0.282403 0.513074 -0.242787 -0.459000 0.235740 -0.042624 0.493523 0.274562 0.236108 -0.216517 0.073817 0.270151 0.265958 -0.125945 -0.389589 0.020544 -0.062429 0.050603 0.270128 -0.025636 0.026203 -0.188080 -0.085497
2588 -0.321256 0.102646 0.128376 0.341198 0.164717 0.210319 0.593054 0.203725 -0.215239 -0.122933 0.108622 -0.104607 -0.306494 -0.331786 0.102804 0.128244 0.396518 -0.515685 0.195585 0.135320 0.059110 -0.372544 0.004986 0.191559 0.034657 -0.181804 0.353501 -0.387106 0.273512 0.264194 -0.292077 -0.223307 0.073575 0.018282 -0.199641 -0.013984 -0.272216 -0.020596 -0.062062 -0.268780 -0.384389 -0.357020 -0.169004 -0.282861 0.178951 -0.268320 0.197873 0.427440 0.291207 0.167715 -0.038011 0.096228 0.025663 0.597391 0.283728 0.059083 0.502595 -0.243570 -0.128930 0.076142 -0.099027 0.197422 0.022216 0.178039 0.088506 0.185434 -0.322151 -0.075463 -0.243049 0.535519 0.187565 -0.183689 -0.042017 -0.100369 0.506046 0.250234 0.122588 0.127878 0.164494 0.038951 0.185336 -0.100764 -0.133871 0.000784 0.555936 0.116617 0.094806 0.013981 -0.389015 0.127672 0.071319 0.316572 0.332883 0.084082 -0.214162 0.575453 0.205271 -0.100038 0.211494 0.368088 0.013758 0.220477 0.223877 0.567527 -0.488982 0.476095 0.510594 -0.190272 0.025518 -0.410566 -0.302111 0.125361 -0.339983 -0.087719 0.288974 -0.333353 0.173613 0.063675 -0.248900 -0.565543 0.241012 0.181337 -0.747399 0.245831 -0.391134 0.135472 -0.216686 0.213785
1853 -0.165146 0.165990 0.390227 0.408158 0.280464 0.188339 0.026627 0.107227 0.324017 -0.313662 0.221614 0.020521 -0.424843 -0.396282 -0.107602 -0.277563 -0.143044 -0.161782 0.066349 0.370328 0.226327 -0.020414 0.087894 -0.038428 -0.007220 -0.106091 -0.173695 -0.111969 -0.164234 0.057058 0.131795 0.154051 -0.107484 0.068528 -0.287846 -0.039711 -0.077146 0.117143 0.106459 0.022028 0.227301 0.377279 0.097806 0.053789 0.275717 0.032688 0.272148 -0.070671 0.265509 -0.605009 -0.169678 -0.163605 0.306525 -0.005621 0.650907 0.106072 0.000792 0.285288 -0.331619 0.534840 -0.128220 0.033767 0.138116 0.288817 0.361885 -0.119938 -0.295461 -0.410459 -0.044630 0.114160 -0.386949 -0.242461 -0.247688 0.668952 0.594594 0.043692 0.017858 -0.173034 -0.297041 -0.155238 -0.326570 -0.374783 0.600272 0.232352 -0.047980 -0.228512 -0.212507 -0.407063 -0.354002 -0.657938 -0.281913 0.183993 -0.299642 0.288492 -0.269075 -0.025774 -0.310392 0.232090 0.036727 0.599641 -0.481768 0.326251 -0.423551 0.191699 0.030755 0.592334 -0.082100 0.036324 -0.078596 0.646849 -0.113892 0.366758 -0.417121 -0.147159 0.156277 -0.004100 -0.134542 -0.500016 -0.249841 -0.356787 -0.216262 0.119175 0.076448 0.119413 -0.259355 0.377335 -0.303911 -0.265005
533 -0.353637 -0.041488 0.235403 -0.186841 0.161099 -0.033873 0.228525 -0.117132 -0.254938 0.103318 -0.106578 -0.391663 0.036953 -0.245845 -0.409354 0.094449 0.025587 -0.107332 -0.117064 0.282984 0.099865 -0.262332 0.541861 0.398567 -0.225919 -0.643159 0.609319 -0.219291 -0.376523 0.331222 0.122213 0.236115 -0.464798 0.144777 0.021986 0.298190 -0.126370 -0.218601 -0.240636 0.109391 0.342531 0.350103 -0.157758 0.005013 -0.064840 0.217444 0.239131 -0.555215 0.416384 0.151762 0.295410 0.268925 0.355875 0.798227 0.367289 0.438916 0.065735 -0.163530 -0.278182 0.114969 -0.835048 0.019026 -0.395546 -0.472737 -0.144950 0.345137 -0.331278 -0.128529 -0.472985 0.017557 0.376442 -0.323725 0.008177 0.055469 0.409885 0.253767 0.303390 -0.237207 -0.030062 -0.160199 -0.089709 -0.530611 0.671107 -0.181031 0.159279 -0.165185 0.075590 0.138033 -0.238475 -0.071884 -0.451932 0.205076 0.219493 0.265378 0.025140 0.410973 0.345618 -0.188304 0.306550 0.077791 0.468504 0.502416 0.059574 0.238993 -0.259539 0.246675 0.428266 -0.229589 -0.267000 0.105509 -0.057916 0.197984 -0.040157 -0.172966 0.013332 0.332613 0.229556 0.034068 0.364566 -0.734906 -0.233637 0.075174 -0.137028 -0.258564 -0.400961 -0.282101 0.192026 0.037283
2573 -0.246238 -0.456883 0.345816 -0.081085 -0.042418 0.350500 -0.130965 -0.294760 0.927525 0.078936 -0.105037 0.074358 0.023152 -0.282042 0.570516 -0.006805 -0.228625 0.194312 -0.389629 0.425532 0.422788 -0.090807 0.372881 -0.173392 0.114515 -0.148217 -0.025776 -0.492318 0.362197 0.493716 0.502986 0.282660 0.236970 0.259046 -0.227864 -0.066319 -0.445481 -0.108056 0.166013 -0.100380 0.262234 0.387384 -0.097116 0.265589 0.221319 -0.230372 0.478452 0.032052 -0.180859 -0.250366 0.034138 -0.772135 0.001159 -0.229365 0.037023 -0.186212 0.232918 -0.102958 0.112725 0.264400 -0.424752 -0.314207 0.002743 -0.693658 0.398539 0.259977 -0.433884 -0.053395 0.179991 0.354904 0.060503 0.129075 -0.317022 0.652619 -0.042316 -0.489701 -0.205767 -0.118878 -0.132563 0.167642 0.333743 -0.031141 0.192193 0.237381 -0.153595 -0.347505 0.003539 -0.294512 -0.550061 0.246687 0.202818 -0.104538 -0.341469 0.376281 0.053612 0.079350 -0.476576 0.036659 0.188442 0.491367 -0.458197 0.226372 0.279809 0.393755 0.088905 -0.193964 0.097195 -0.013870 -0.226667 -0.197337 -0.265314 0.449439 -0.109384 -0.331982 0.894689 0.000992 -0.022340 0.328727 0.234313 -0.286125 0.101105 0.267200 -0.562974 0.147029 -0.014918 -0.276490 0.339662 -0.126158
613 -0.642839 -0.264496 0.385269 0.440374 0.055542 -0.117351 -0.094716 -0.009817 0.251439 -0.413441 0.148959 0.255943 -0.211526 -0.093057 0.218936 -0.152487 0.101356 -0.339164 -0.107667 0.022307 -0.214754 0.072470 0.563467 -0.563105 -0.216668 -0.338201 0.044981 -0.517613 0.326217 0.315034 0.168647 0.029623 0.572042 0.372810 -0.806018 -0.208741 0.096370 -0.061925 -0.021602 -0.216845 -0.158069 0.090327 -0.320810 -0.116060 0.094523 -0.000562 0.021089 0.228105 0.217287 -0.130332 -0.264009 0.046852 0.202171 0.153041 0.310673 -0.047302 0.117731 -0.391843 0.046924 0.283647 -0.533988 0.022022 0.071062 0.055289 0.316411 0.255645 -0.173314 -0.124514 -0.228324 0.113140 0.205788 0.100599 0.017251 0.231287 -0.016595 -0.010017 -0.038834 0.096063 0.076458 -0.237838 -0.019914 -0.302183 0.142317 -0.033319 -0.156166 0.176428 -0.201247 0.414409 -0.371854 0.162981 -0.197666 0.114342 0.076621 0.220703 -0.444911 0.009417 -0.118381 -0.125030 0.157613 0.083059 -0.276434 0.774701 -0.465778 0.355346 0.226368 0.593541 0.748076 0.020941 0.181807 0.254309 0.151660 0.065846 -0.183037 -0.270473 0.018635 0.078385 0.029388 0.390703 -0.339698 0.117864 0.184516 0.183752 -0.419692 0.004056 -0.467580 0.026030 0.172701 -0.487855
2068 -0.339063 0.064658 0.352996 0.160834 0.117309 -0.064760 0.224145 -0.012596 0.089611 -0.077326 0.282449 0.384246 -0.080073 -0.326461 -0.115256 0.205028 0.627672 -0.197119 0.083275 0.287483 0.026444 0.269547 0.326788 -0.306982 -0.594105 -0.232683 -0.029968 -0.158162 0.358503 0.167976 -0.418018 0.308911 -0.470365 0.389855 -0.385861 0.082863 -0.314571 -0.442679 0.082327 -0.202763 0.235930 -0.347426 0.214771 0.281420 -0.182971 0.199231 0.012109 -0.386482 0.389479 0.180888 -0.182369 -0.303540 0.403011 0.433900 0.072697 0.031136 0.229053 0.081698 -0.022846 0.373366 -0.183707 -0.048318 -0.734116 -0.227431 0.630480 0.023607 0.000727 -0.529063 -0.339149 0.132350 0.388615 0.197858 -0.008075 -0.134129 0.298298 0.003137 -0.324082 0.677619 0.273379 0.253815 0.341030 -0.001824 0.426661 -0.033153 -0.245028 0.026708 -0.113095 0.057794 -0.446492 0.293082 -0.363499 -0.090789 0.206641 -0.461861 -0.411470 -0.302553 -0.060821 -0.116076 0.039304 0.101771 -0.175540 0.277312 -0.029340 -0.026112 0.029335 0.158989 -0.262297 0.107775 0.134045 -0.079575 -0.211156 0.462389 0.233820 -0.184948 0.047552 0.032643 0.054707 0.071740 -0.158478 -0.012850 -0.316783 0.041601 -0.415382 -0.472074 -0.088431 -0.427716 -0.054626 0.115080
249 -0.263608 0.076211 0.633577 0.388602 0.241724 0.222189 0.188175 0.089957 -0.227249 0.304219 0.244208 -0.027970 -0.552614 -0.912606 0.003349 0.083101 0.028820 0.418626 0.122197 0.103252 -0.128692 0.169564 0.651901 -0.148512 -0.053481 -0.589113 0.073463 -0.389244 0.185525 -0.047156 -0.233786 0.047399 -0.563392 0.069060 -0.007295 -0.384204 0.356138 -0.287538 -0.232194 0.100199 0.238763 -0.171953 0.730462 0.459364 -0.204170 0.361030 0.436784 0.257885 0.338927 -0.012433 -0.137052 -0.138281 0.248788 0.110855 -0.026861 -0.202574 0.324138 0.112876 -0.041973 0.594255 -0.397478 -0.053932 -0.318285 -0.384865 0.145035 0.285031 -0.411974 -0.431454 -0.479259 0.119818 -0.008501 0.243754 -0.088502 0.025026 -0.518491 0.180243 -0.148399 -0.041534 -0.287376 -0.337497 0.008907 -0.102401 0.562803 -0.243882 -0.111814 0.279098 0.007250 -0.128362 -0.397163 0.362859 -0.061494 -0.041645 0.099117 0.143446 -0.542419 0.208741 0.246389 0.710030 0.169995 0.049410 -0.082476 0.521240 0.113241 0.236626 -0.223942 0.191802 0.747253 -0.062980 0.344736 -0.248762 0.212037 0.391668 0.002794 -0.387129 -0.024570 -0.203286 -0.297780 -0.097218 -0.538767 -0.086619 0.134332 -0.175166 -0.453875 0.199201 -0.358557 0.344418 0.508139 0.138464
1798 -0.520839 0.148563 0.156479 0.205056 0.031597 0.167416 -0.165861 0.138426 -0.254791 -0.100136 0.246359 -0.161498 0.042849 -0.033828 -0.056044 0.042300 0.294239 0.286862 0.371580 0.160016 0.281515 -0.076410 0.321727 0.316811 0.036724 -0.250983 -0.354747 -0.316500 -0.235074 0.356018 -0.184903 -0.532390 0.072087 -0.057083 -0.530475 -0.151316 -0.210359 -0.629338 0.269178 0.325904 -0.086082 0.163455 0.254339 0.146316 -0.112594 -0.104430 0.595701 -0.127947 0.453900 -0.168869 -0.062936 -0.056918 -0.089880 0.621855 0.299109 -0.277823 0.097734 -0.238524 0.204061 0.052266 -0.208406 0.282757 -0.279239 -0.193321 0.730499 -0.005851 0.047271 -0.559066 -0.163429 0.014389 -0.005095 -0.080734 -0.058249 0.223909 -0.438305 -0.383458 -0.456062 -0.077745 -0.108686 0.109035 0.035882 -0.359542 -0.053109 -0.303444 0.064636 -0.013295 0.010157 0.167612 -0.149051 0.202974 -0.403130 0.287222 -0.176381 -0.321365 -0.164300 -0.407955 0.501838 0.164154 -0.323624 0.132149 -0.198645 0.688856 -0.108832 0.236219 -0.006542 0.232332 -0.272620 -0.175863 0.184477 -0.118153 0.196446 0.204638 -0.076699 -0.269161 -0.063792 0.036787 0.464811 -0.005817 0.041404 -0.051853 -0.062097 -0.484232 -0.466057 0.581511 -0.645738 -0.051647 -0.015245 -0.236736
1713 -0.361404 -0.275870 0.084491 -0.035150 0.209504 -0.063795 0.081687 0.041005 0.061045 0.238867 0.116836 -0.128392 0.132467 -0.045705 -0.205151 -0.189060 0.019640 -0.308572 -0.359214 0.304278 0.012480 -0.046699 0.171648 0.575355 -0.109993 -0.272265 0.420021 0.068436 -0.389468 0.416145 -0.339661 0.097029 -0.428690 0.211449 0.090429 -0.155259 0.337203 -0.202401 -0.147968 -0.087595 -0.008574 0.352362 0.114861 0.313152 -0.233298 0.083754 0.409064 -0.361350 0.133800 -0.003796 0.128291 0.092717 0.492034 0.880181 -0.027938 0.469903 0.241564 -0.270586 -0.354735 0.629973 -0.435448 0.089404 -0.309434 -0.262674 0.171078 0.615712 -0.501556 -0.226079 -0.369583 -0.388616 0.413612 -0.481125 -0.610934 0.052693 0.256912 0.350280 0.130105 -0.265733 -0.045668 -0.159011 0.057041 -0.083866 0.759633 -0.049982 0.218534 -0.197031 -0.259232 0.351139 -0.342116 -0.170433 0.166666 0.400407 0.297496 0.072058 0.029238 0.282582 -0.084545 0.049807 0.399441 0.032627 -0.036930 0.203935 0.063500 0.350992 -0.138186 -0.055209 0.410073 -0.280037 -0.258657 0.211178 -0.024368 0.132303 0.282977 -0.310509 -0.020594 -0.046201 0.087648 0.188620 0.489861 -0.503827 -0.253655 -0.357144 -0.071797 -0.157385 -0.219515 -0.682932 0.108757 -0.122209
2223 0.060248 -0.398363 0.321290 0.298454 -0.019697 -0.062230 0.129686 -0.015494 -0.123808 0.054512 0.556461 0.056149 -0.219043 -0.097930 -0.264715 -0.268809 0.228131 -0.074370 -0.365848 0.293898 0.106885 -0.380513 0.423123 0.231857 -0.004694 -0.370135 0.389230 -0.558749 -0.155407 -0.199557 -0.229068 -0.147046 -0.040411 0.023937 -0.115421 0.054388 0.037625 -0.232565 -0.114436 -0.578340 -0.006186 0.442268 0.660194 0.074481 -0.116004 0.168164 0.101510 -0.287700 0.527162 0.146168 0.054615 0.146616 0.692614 0.177428 0.109274 0.039101 0.142390 -0.536430 -0.152583 0.297297 -0.310744 -0.239555 -0.168724 -0.647293 0.311845 0.218454 -0.576162 -0.266111 -0.064534 -0.227235 0.065042 -0.053318 -0.134617 0.122866 0.331338 0.130986 -0.137612 0.091643 0.094345 -0.136761 -0.085866 -0.322436 0.464111 -0.053711 0.095361 0.010449 -0.349048 -0.360113 -0.252461 0.197114 -0.159268 0.276096 0.378818 0.118646 0.448624 0.170304 0.200075 -0.208074 0.037101 -0.226855 -0.591582 0.225688 -0.497373 0.139731 0.128168 -0.113464 0.256335 0.222495 -0.262903 -0.017488 -0.103649 0.171983 -0.085107 -0.236419 0.014306 -0.098878 0.091457 0.117805 0.309956 -0.380504 -0.451143 0.021066 -0.326394 -0.149817 -0.269828 0.056318 -0.047169 -0.117769
38 -0.057964 -0.258986 0.350135 0.102706 0.027875 0.075039 -0.025977 0.345581 0.332260 0.123563 0.041551 0.207186 0.181737 -0.423663 -0.251784 -0.198788 0.059179 -0.350708 -0.142452 0.146288 -0.047765 0.171433 0.184379 0.020402 -0.225833 0.190610 0.193086 -0.298593 0.111772 -0.156186 -0.247749 -0.009683 0.226385 0.193357 -0.347586 -0.131028 0.054831 -0.574622 0.143505 -0.558311 -0.229656 0.387354 0.218066 -0.259760 -0.010844 -0.021509 -0.128247 -0.106806 0.043083 -0.539134 0.345984 -0.053525 -0.237007 -0.168483 0.479243 -0.532343 0.358695 0.231182 -0.752971 0.355323 -0.165138 -0.081941 -0.147460 -0.284021 0.348381 0.230072 0.250587 -0.436193 -0.086417 0.092425 -0.108932 -0.088471 -0.247876 0.143017 0.118939 0.151402 0.166878 0.222077 0.054546 -0.160319 0.045582 -0.073844 0.020281 0.329335 0.012444 0.173952 0.297388 -0.479613 -0.392354 -0.307423 -0.280827 -0.021367 -0.127061 -0.117231 -0.576046 -0.174260 -0.017529 0.153312 0.048883 0.297907 -0.062046 0.061464 -0.216803 0.291582 -0.452779 0.342826 -0.292016 -0.304283 -0.075366 0.342619 0.245766 0.152274 -0.531690 -0.288507 0.237233 0.113699 -0.074815 0.187042 -0.154277 -0.120774 0.087477 -0.071727 -0.571103 -0.140568 -0.426614 -0.042314 -0.297451 0.123083
155 -0.387850 -0.007568 0.140532 -0.072543 0.122608 0.108250 -0.193151 0.064527 0.089662 0.359025 0.369074 -0.778578 0.177413 -0.329939 -0.228234 -0.045902 0.080585 -0.055424 -0.139091 0.056580 -0.130730 -0.145715 0.213825 0.477768 -0.404296 -0.722448 -0.391851 -0.489651 -0.002441 0.349185 -0.069168 0.096827 0.157537 -0.025447 -0.202139 -0.144440 -0.070405 -0.329721 0.041070 -0.511888 0.213837 0.060025 0.340386 0.440340 -0.455104 -0.319804 0.085710 -0.110977 0.440598 -0.165516 -0.122384 -0.229713 0.249524 0.780084 -0.116663 0.367729 0.461260 0.150450 0.061523 0.081831 -0.154730 0.045179 0.013707 -0.195714 0.104238 0.320869 -0.607296 -0.381213 -0.234142 -0.207900 0.399073 -0.495125 -0.759358 -0.141239 0.241628 0.209941 -0.423690 -0.027785 -0.486158 -0.372798 0.437063 -0.382558 0.264579 0.023070 0.466683 -0.068232 -0.144344 0.001210 0.049819 -0.328060 0.044945 0.323422 0.516332 -0.124640 -0.039777 -0.248417 0.128670 -0.388495 -0.019372 -0.085967 0.214038 0.780413 -0.101096 0.413264 0.036234 0.300305 0.196414 -0.362673 -0.304217 0.015605 -0.018782 0.545125 -0.199983 0.352295 0.010278 0.370170 -0.308053 0.209924 0.476543 -0.617169 -0.112423 -0.100933 -0.110581 -0.152237 -0.303879 -0.566351 0.121825 0.089384
802 -0.000045 -0.264132 0.387522 -0.111676 -0.211338 0.454626 0.169497 0.360104 0.123687 -0.024413 0.855368 -0.089519 -0.132546 -0.037680 -0.543725 -0.178512 0.357723 0.307101 0.001694 0.146988 0.375468 -0.159596 0.552706 0.211057 -0.260556 -0.114216 -0.016650 -0.449619 0.144364 0.263740 -0.358828 0.204332 -0.557092 -0.060242 0.125477 -0.178434 0.419484 -0.037117 -0.008908 -0.246723 -0.186118 0.094127 0.049564 -0.210405 -0.122140 -0.059410 0.007395 -0.228229 0.333066 -0.162718 -0.253010 0.001739 0.810247 0.327147 0.178018 0.164232 0.348730 -0.016380 -0.159894 0.259411 -0.171369 -0.277890 0.167481 -0.414927 0.089447 0.148464 -0.070443 -0.607254 -0.285385 0.267642 0.484850 -0.239531 -0.514128 0.393904 0.091968 0.529833 -0.301720 0.100853 -0.085830 -0.470285 -0.402522 0.363470 0.416838 0.322566 0.189257 0.059976 -0.293259 0.046685 -0.474405 0.087325 -0.006116 -0.042541 0.138548 -0.134930 0.208960 0.544144 0.535133 0.275607 0.459070 -0.066944 0.183371 0.275196 0.215572 -0.030755 -0.128567 -0.156750 0.272785 -0.092222 -0.093179 0.033388 0.057937 0.252217 -0.099433 0.046502 0.518118 0.010910 -0.317012 -0.592402 0.006495 -0.501133 -0.151080 -0.273218 0.002405 0.572873 -0.197924 -0.243947 -0.052418 0.249441
513 -0.190442 -0.097065 0.085758 0.002355 0.125319 -0.090924 -0.237367 0.097755 0.221102 0.228728 0.324994 -0.565006 0.226305 -0.365367 -0.230818 0.079164 0.051137 -0.022234 -0.316009 -0.204602 -0.000760 -0.303860 0.208663 0.434187 -0.571918 -0.806341 -0.377351 -0.641575 -0.020506 0.491792 -0.132118 -0.067037 0.112213 -0.191112 -0.162744 -0.119917 -0.101142 -0.270072 0.110375 -0.480505 0.197886 0.205695 0.552511 0.239522 -0.538581 -0.383940 0.027295 -0.237523 0.429500 -0.243559 -0.137258 -0.220686 0.370093 0.804931 0.003080 0.224893 0.330533 0.029631 -0.049535 -0.036664 -0.089016 0.158631 0.028215 -0.418387 0.164064 0.345891 -0.574503 -0.422464 -0.480779 -0.074704 0.611121 -0.504191 -0.545326 -0.076920 0.221701 0.057752 -0.349960 0.025434 -0.420301 -0.278150 0.476680 -0.540393 0.305081 -0.186127 0.561876 -0.041524 0.005362 -0.074829 -0.065971 -0.323799 0.050122 0.412402 0.445458 -0.136515 -0.060473 -0.235762 0.266908 -0.455342 -0.008903 -0.243447 0.173028 0.923662 -0.113989 0.480131 -0.015142 0.227885 0.069145 -0.318535 -0.303704 -0.063966 -0.002239 0.576096 -0.220254 0.579482 0.181079 0.229880 -0.095830 0.267251 0.338888 -0.353130 -0.034853 -0.147595 -0.050023 -0.097553 -0.494012 -0.188993 0.078069 0.095338
137 -0.510627 0.104722 0.277308 -0.036071 0.189548 -0.088081 0.037006 0.062750 -0.003131 0.141977 0.164545 -0.213393 0.185979 0.049061 -0.257094 -0.171626 0.111003 -0.293422 -0.163952 0.095225 0.039069 0.141690 0.198143 0.278947 0.073449 -0.533985 0.584229 -0.201767 -0.446125 0.631119 -0.325284 0.040911 -0.361679 0.210049 -0.058219 -0.018377 0.239455 -0.071789 -0.166894 -0.020538 -0.006265 0.018525 0.195218 0.290935 -0.130458 0.244753 0.168354 -0.465188 0.388901 -0.203936 0.195603 0.039872 0.277777 0.954945 0.129866 0.339436 0.231693 -0.185453 -0.354104 0.299313 -0.484365 0.104242 0.052678 -0.317451 0.017209 0.548407 -0.653932 -0.146981 -0.747917 -0.333203 0.430815 -0.593398 -0.403426 0.229888 0.345367 -0.097522 0.056275 0.010326 -0.026553 -0.089011 0.041251 -0.101960 0.830276 -0.123277 0.299425 -0.177809 -0.328030 0.276015 -0.353996 -0.163539 -0.111882 0.363601 0.040333 0.070517 0.035804 0.081147 -0.134052 -0.006312 0.271444 -0.038604 0.142888 0.280558 0.242512 0.538852 -0.315808 -0.063435 0.303092 -0.100675 -0.552022 0.082725 0.065357 0.283811 0.288965 -0.209412 0.072841 0.069364 0.262277 0.124930 0.494428 -0.524354 -0.021994 -0.247762 -0.270643 -0.147034 -0.126460 -0.387935 0.069338 -0.184858
1910 0.125206 -0.372390 -0.005625 -0.012292 -0.061376 0.195860 -0.409944 -0.175196 0.334031 -0.291650 0.625908 -0.021734 -0.125427 -0.498022 -0.640039 -0.369566 -0.114603 0.460550 -0.656725 0.432341 0.099844 -0.376479 0.247281 0.077681 -0.365239 -0.350804 -0.023525 -0.586751 -0.203889 -0.203184 -0.342852 -0.157001 0.083988 0.509767 -0.357800 -0.165768 0.199836 -0.393683 0.015434 -0.212006 -0.108683 0.045456 0.129323 -0.083520 0.136214 -0.378958 0.419499 -0.372955 0.288072 0.367684 0.021155 -0.399500 0.325053 0.308582 0.677254 0.057258 0.106937 -0.064413 -0.283157 0.273803 -0.134877 0.283605 0.362561 -0.311158 0.348429 -0.056914 -0.107530 -0.401653 -0.178099 0.201607 0.327291 -0.134771 -0.193921 0.038430 0.331148 0.547900 -0.107090 -0.551734 0.201108 -0.190036 -0.483712 -0.281256 0.219984 -0.212535 0.012070 0.108573 -0.120299 0.017944 -0.291328 0.199359 0.227223 -0.019704 0.177534 0.031185 -0.072833 0.241015 0.160117 -0.225826 0.468360 0.143865 -0.001454 0.319874 -0.051408 0.439625 -0.197843 -0.276907 0.090350 0.080657 0.173973 0.421463 -0.089327 -0.454662 -0.103903 0.318021 0.236686 0.074819 0.139608 -0.333732 -0.008055 -0.809075 -0.169609 0.020480 -0.003707 -0.174250 -0.693280 -0.551836 0.230292 0.035881
2190 0.019960 -0.183729 0.141793 0.079499 0.255788 0.718087 -0.086790 -0.136664 -0.357510 0.483518 0.224449 -0.096687 -0.451871 -0.985933 -0.326885 -0.109920 -0.202857 0.086988 -0.198600 0.228139 -0.222454 0.082252 0.603827 0.087085 0.030431 -0.302840 -0.136965 -0.439304 0.121211 -0.016888 -0.143599 0.186021 -0.216644 0.219207 0.031210 -0.585294 0.517271 -0.100210 -0.077324 -0.414290 0.642508 0.165485 0.988076 0.649492 -0.205480 -0.163359 0.164576 0.088917 0.215317 -0.222722 0.091818 -0.028496 0.287643 0.175665 0.085041 -0.318316 0.313365 -0.176425 0.216211 0.563365 -0.330613 -0.271743 -0.320889 -0.066612 0.086884 0.749357 -0.392570 -0.228130 -0.657291 0.296077 0.251792 0.041377 -0.469472 -0.171679 -0.207632 0.086890 -0.563420 -0.156770 -0.562535 -0.374199 -0.043235 0.289693 0.131815 -0.099605 0.048218 0.061821 0.570098 -0.061495 -0.235700 0.335151 0.024446 0.172559 0.026204 0.105422 -0.524656 0.097761 -0.124279 0.671091 0.082949 -0.028738 -0.389379 0.294124 -0.185019 0.042354 -0.182936 0.356874 0.314016 0.125325 -0.016676 0.156274 -0.164209 0.308149 -0.107345 -0.369076 0.010294 -0.358337 -0.331883 -0.196831 -0.162389 -0.312735 0.367439 -0.038659 -0.331917 -0.017665 -0.504611 0.414085 0.313460 0.049634
